{"learner":{"attributes":{"scikit_learn":"{\"n_estimators\": 100, \"objective\": \"reg:squarederror\", \"max_depth\": null, \"learning_rate\": null, \"verbosity\": null, \"booster\": null, \"tree_method\": null, \"gamma\": null, \"min_child_weight\": null, \"max_delta_step\": null, \"subsample\": null, \"colsample_bytree\": null, \"colsample_bylevel\": null, \"colsample_bynode\": null, \"reg_alpha\": null, \"reg_lambda\": null, \"scale_pos_weight\": null, \"base_score\": null, \"missing\": NaN, \"num_parallel_tree\": null, \"kwargs\": {}, \"random_state\": null, \"n_jobs\": 16, \"monotone_constraints\": null, \"interaction_constraints\": null, \"importance_type\": \"gain\", \"gpu_id\": null, \"validate_parameters\": null, \"n_features_in_\": 34, \"type\": \"XGBRegressor\"}"},"gradient_booster":{"model":{"gbtree_model_param":{"num_trees":"100","size_leaf_vector":"0"},"tree_info":[0,0,0,0,0,0,0,0,0,0,0,0,0,0,0,0,0,0,0,0,0,0,0,0,0,0,0,0,0,0,0,0,0,0,0,0,0,0,0,0,0,0,0,0,0,0,0,0,0,0,0,0,0,0,0,0,0,0,0,0,0,0,0,0,0,0,0,0,0,0,0,0,0,0,0,0,0,0,0,0,0,0,0,0,0,0,0,0,0,0,0,0,0,0,0,0,0,0,0,0],"trees":[{"base_weights":[6.830713E1,6.021606E1,7.6191216E1,5.109804E1,6.1661785E1,7.2910545E1,8.365213E1],"categories":[],"categories_nodes":[],"categories_segments":[],"categories_sizes":[],"default_left":[true,true,true,false,false,false,false],"id":0,"left_children":[1,3,5,-1,-1,-1,-1],"loss_changes":[3.745E4,1.199375E3,1.97825E3,0E0,0E0,0E0,0E0],"parents":[2147483647,0,0,1,1,2,2],"right_children":[2,4,6,-1,-1,-1,-1],"split_conditions":[1.01E2,8.2350006E1,1.1595E2,1.5329413E1,1.8498537E1,2.1873165E1,2.509564E1],"split_indices":[22,22,22,0,0,0,0],"split_type":[0,0,0,0,0,0,0],"sum_hessian":[6.58E2,3.29E2,3.29E2,5E1,2.79E2,2.36E2,9.3E1],"tree_param":{"num_deleted":"0","num_feature":"34","num_nodes":"7","size_leaf_vector":"0"}},{"base_weights":[4.7937595E1,4.1074947E1,5.277576E1,3.8449398E1,4.3551823E1,4.907041E1,5.643642E1,3.2830032E1,4.0240986E1,5.656362E1,1.6452179E1],"categories":[],"categories_nodes":[],"categories_segments":[],"categories_sizes":[],"default_left":[true,true,true,true,false,false,true,false,false,false,false],"id":1,"left_children":[1,3,5,7,-1,-1,9,-1,-1,-1,-1],"loss_changes":[1.971275E4,1.2684375E2,2.42575E3,1.18546875E2,0E0,0E0,1.54375E1,0E0,0E0,0E0,0E0],"parents":[2147483647,0,0,1,1,2,2,3,3,6,6],"right_children":[2,4,6,8,-1,-1,10,-1,-1,-1,-1],"split_conditions":[9.8850006E1,9.225E1,1.0875E2,3.525E1,1.3065547E1,1.4721124E1,2.49E2,9.84901E0,1.2072296E1,1.6969088E1,4.9356537E0],"split_indices":[22,22,22,12,0,0,19,0,0,0,0],"split_type":[0,0,0,0,0,0,0,0,0,0,0],"sum_hessian":[6.58E2,2.76E2,3.82E2,1.42E2,1.34E2,1.97E2,1.85E2,3.9E1,1.03E2,1.84E2,1E0],"tree_param":{"num_deleted":"0","num_feature":"34","num_nodes":"11","size_leaf_vector":"0"}},{"base_weights":[3.3664986E1,2.8447702E1,3.6804913E1,1.9045393E1,2.8757526E1,3.552246E1,4.508556E1,4.510788E0,2.0047775E1,2.8852736E1,1.1555028E1,3.251602E1,3.7683292E1,1.0667637E1,4.5560566E1,2.997363E1,3.540278E1,3.77654E1,1.059017E1],"categories":[],"categories_nodes":[],"categories_segments":[],"categories_sizes":[],"default_left":[true,true,true,true,true,true,true,false,false,false,false,true,true,false,false,false,false,false,false],"id":2,"left_children":[1,3,5,7,9,11,13,-1,-1,-1,-1,15,17,-1,-1,-1,-1,-1,-1],"loss_changes":[9.7486875E3,1.8639062E2,2.7311875E3,6.983008E1,6.296875E1,1.1004062E3,3.477578E2,0E0,0E0,0E0,0E0,9.1109375E1,4.940625E1,0E0,0E0,0E0,0E0,0E0,0E0],"parents":[2147483647,0,0,1,1,2,2,3,3,4,4,5,5,6,6,11,11,12,12],"right_children":[2,4,6,8,10,12,14,-1,-1,-1,-1,16,18,-1,-1,-1,-1,-1,-1],"split_conditions":[9.805E1,7.16E1,1.204E2,4.745E1,3.0955E1,4.955E1,4.4699997E1,1.3532364E0,6.014333E0,8.655821E0,3.4665086E0,1.0705E2,7.325E1,3.2002912E0,1.366817E1,8.992089E0,1.0620834E1,1.132962E1,3.177051E0],"split_indices":[22,22,22,4,29,4,9,0,0,0,0,22,6,0,0,0,0,0,0],"split_type":[0,0,0,0,0,0,0,0,0,0,0,0,0,0,0,0,0,0,0],"sum_hessian":[6.58E2,2.51E2,4.07E2,1E1,2.41E2,3.57E2,5E1,1E0,9E0,2.39E2,2E0,1.56E2,2.01E2,1E0,4.9E1,8.9E1,6.7E1,2E2,1E0],"tree_param":{"num_deleted":"0","num_feature":"34","num_nodes":"19","size_leaf_vector":"0"}},{"base_weights":[2.3672438E1,1.9165005E1,2.5665518E1,2.8997349E1,1.8621286E1,2.497083E1,3.433913E1,3.061671E1,8.021233E0,1.7453005E1,2.1272053E1,2.1792473E1,2.5935696E1,3.531996E1,1.3411403E1,1.7749807E1,1.1061746E1,2.1690273E1,6.653398E0,2.1897076E1,5.456812E0,2.3679796E1,2.7354574E1,9.083551E0,3.593256E1,9.873268E0,1.7976803E1,2.386673E0,1.18477955E1,2.206226E1,8.981834E0,2.4009352E1,1.2812502E1,2.971582E1,2.5406338E1,3.154129E0,1.2444305E1,1.9549583E1,1.5877271E1,2.2160143E1,6.088045E0,1.7269669E1,2.4764538E1,3.0370543E1,1.3820872E1,2.5541798E1,5.2528267E0],"categories":[],"categories_nodes":[],"categories_segments":[],"categories_sizes":[],"default_left":[true,true,true,true,true,true,true,false,false,true,true,true,true,true,false,true,true,false,false,true,false,true,true,false,false,true,true,false,false,true,false,true,false,true,true,false,false,false,false,false,false,false,false,false,false,false,false],"id":3,"left_children":[1,3,5,7,9,11,13,-1,-1,15,17,19,21,23,-1,25,27,-1,-1,29,-1,31,33,-1,-1,35,37,-1,-1,39,-1,41,-1,43,45,-1,-1,-1,-1,-1,-1,-1,-1,-1,-1,-1,-1],"loss_changes":[5.428375E3,5.613125E2,1.8780938E3,6.012744E1,2.4192188E2,7.350625E2,1.6263281E2,0E0,0E0,7.491797E1,1.980586E2,5.99375E1,3.7653125E2,1.3970703E2,0E0,6.3882812E1,3.3094604E1,0E0,0E0,2.3710938E1,0E0,1.6153906E2,1.1909375E2,0E0,0E0,6.439996E1,1.1887891E2,0E0,0E0,2.4574219E1,0E0,2.13625E2,0E0,4.1279688E2,1.6886719E2,0E0,0E0,0E0,0E0,0E0,0E0,0E0,0E0,0E0,0E0,0E0,0E0],"parents":[2147483647,0,0,1,1,2,2,3,3,4,4,5,5,6,6,9,9,10,10,11,11,12,12,13,13,15,15,16,16,19,19,21,21,22,22,25,25,26,26,29,29,31,31,33,33,34,34],"right_children":[2,4,6,8,10,12,14,-1,-1,16,18,20,22,24,-1,26,28,-1,-1,30,-1,32,34,-1,-1,36,38,-1,-1,40,-1,42,-1,44,46,-1,-1,-1,-1,-1,-1,-1,-1,-1,-1,-1,-1],"split_conditions":[9.605E1,2.7E1,1.2325E2,6.2E1,9.42E1,3.965E1,7.6E0,9.185014E0,2.40637E0,9.85E-1,1.449E2,9E1,4.965E1,7.4399994E1,4.023421E0,6.05E2,4.7449997E1,6.5070825E0,1.9960195E0,5.025E1,1.6370436E0,2.9775E2,8.15E1,2.7250655E0,1.0779768E1,1.6505E2,1.3499999E0,7.160019E-1,3.5543387E0,4.86E2,2.6945505E0,3.45E0,3.8437507E0,8.85E1,1.3445001E2,9.4623876E-1,3.7332919E0,5.8648753E0,4.763181E0,6.648043E0,1.8264136E0,5.1809006E0,7.429362E0,9.111163E0,4.1462617E0,7.6625395E0,1.5758481E0],"split_indices":[22,13,22,6,8,12,18,0,0,23,25,8,4,5,0,28,4,0,0,7,0,27,20,0,0,14,26,0,0,20,0,18,0,17,5,0,0,0,0,0,0,0,0,0,0,0,0],"split_type":[0,0,0,0,0,0,0,0,0,0,0,0,0,0,0,0,0,0,0,0,0,0,0,0,0,0,0,0,0,0,0,0,0,0,0,0,0,0,0,0,0,0,0,0,0,0,0],"sum_hessian":[6.58E2,2.05E2,4.53E2,8E0,1.97E2,4.23E2,3E1,7E0,1E0,1.42E2,5.5E1,1.04E2,3.19E2,2.8E1,2E0,1.34E2,8E0,5.3E1,2E0,1.03E2,1E0,1.3E2,1.89E2,1E0,2.7E1,5E0,1.29E2,1E0,7E0,1.01E2,2E0,1.25E2,5E0,7.9E1,1.1E2,2E0,3E0,6.9E1,6E1,1E2,1E0,1.5E1,1.1E2,7.5E1,4E0,1.09E2,1E0],"tree_param":{"num_deleted":"0","num_feature":"34","num_nodes":"47","size_leaf_vector":"0"}},{"base_weights":[1.673604E1,1.5045696E1,1.9995657E1,1.3009733E1,1.594867E1,1.9520273E1,3.3856113E1,1.0770245E1,1.4702168E1,1.63317E1,1.21105E1,2.221366E1,1.819592E1,1.1002574E1,-1.9332733E0,5.3457017E0,1.5141623E1,1.6521355E1,9.767448E0,2.0286713E0,1.2378939E1,2.2540047E1,7.7373695E0,1.4672355E1,1.909446E1,1.1149945E1,9.3278885E-1,7.2381682E0,1.5616315E1,1.5887695E1,1.8925734E1,1.0210577E1,2.8896427E0,2.2896442E0,1.2647893E1,2.2853628E1,8.441503E0,1.2082417E1,2.3306046E1,2.246644E1,1.7318438E1,7.656539E0,1.1835232E1,1.6024366E1,7.2700057E0,1.7406199E1,1.4349182E1,7.10687E0,1.9277452E1,1.2931383E1,2.3550835E0,1.5827157E1,2.3731611E1,1.2930142E1,3.5515919E0,6.7537746E0,2.4939129E1,2.3663616E0,2.2959044E1,1.344818E1,1.8287579E1],"categories":[],"categories_nodes":[],"categories_segments":[],"categories_sizes":[],"default_left":[true,true,true,true,true,true,false,true,true,true,true,true,true,true,false,false,true,true,true,false,true,true,false,true,true,true,false,false,true,true,true,false,false,false,true,true,false,true,true,true,true,false,false,false,false,false,false,false,false,false,false,false,false,false,false,false,false,false,false,false,false],"id":4,"left_children":[1,3,5,7,9,11,-1,13,15,17,19,21,23,25,-1,-1,27,29,31,-1,33,35,-1,37,39,41,-1,-1,43,45,47,-1,-1,-1,49,51,-1,53,55,57,59,-1,-1,-1,-1,-1,-1,-1,-1,-1,-1,-1,-1,-1,-1,-1,-1,-1,-1,-1,-1],"loss_changes":[3.3301719E3,5.977422E2,8.018828E2,3.722793E2,2.4178906E2,3.6983594E2,0E0,2.1016113E2,2.3566211E2,1.7352344E2,5.878418E1,1.4216797E2,1.9791406E2,8.309131E1,0E0,0E0,1.608418E2,9.542969E1,9.7265625E-1,0E0,5.2447266E1,9.444922E1,0E0,5.0103223E2,3.1159375E2,5.781006E1,0E0,0E0,1.150918E2,2.4551953E2,6.66875E1,0E0,0E0,0E0,5.416455E1,1.3050781E1,0E0,1.6379932E2,2.07854E1,3.1202148E2,5.788086E1,0E0,0E0,0E0,0E0,0E0,0E0,0E0,0E0,0E0,0E0,0E0,0E0,0E0,0E0,0E0,0E0,0E0,0E0,0E0,0E0],"parents":[2147483647,0,0,1,1,2,2,3,3,4,4,5,5,7,7,8,8,9,9,10,10,11,11,12,12,13,13,16,16,17,17,18,18,20,20,21,21,23,23,24,24,25,25,28,28,29,29,30,30,34,34,35,35,37,37,38,38,39,39,40,40],"right_children":[2,4,6,8,10,12,-1,14,16,18,20,22,24,26,-1,-1,28,30,32,-1,34,36,-1,38,40,42,-1,-1,44,46,48,-1,-1,-1,50,52,-1,54,56,58,60,-1,-1,-1,-1,-1,-1,-1,-1,-1,-1,-1,-1,-1,-1,-1,-1,-1,-1,-1,-1],"split_conditions":[1.0625E2,3.965E1,1.333E2,9.8455E1,8.55E-1,2.2134998E1,1.0156835E1,5.915E1,7.65E1,3.25E3,3.995E1,2.345E2,1.052E2,9.7634995E1,-5.7998204E-1,1.6037105E0,9.95E1,3.6505E2,2.1115E2,6.086014E-1,7.47E1,5.5300003E1,2.3212109E0,6.06E1,1.25E0,9.5E1,2.7983665E-1,2.1714506E0,3.0335E1,6.045E1,4.605E1,3.0631733E0,8.668929E-1,6.868933E-1,1.7375E2,7.93E1,2.532451E0,2.568E3,4.99E1,1.241E2,1.6775E2,2.2969618E0,3.5505698E0,4.80731E0,2.181002E0,5.22186E0,4.3047547E0,2.1320612E0,5.783236E0,3.879415E0,7.065251E-1,4.7481475E0,7.1194835E0,3.8790429E0,1.0654776E0,2.0261326E0,7.481739E0,7.099085E-1,6.8877134E0,4.0344543E0,5.486274E0],"split_indices":[22,12,22,24,23,29,0,11,22,28,12,20,25,24,0,0,16,2,0,0,5,10,0,7,26,19,0,0,29,15,11,0,0,0,14,8,0,28,4,0,14,0,0,0,0,0,0,0,0,0,0,0,0,0,0,0,0,0,0,0,0],"split_type":[0,0,0,0,0,0,0,0,0,0,0,0,0,0,0,0,0,0,0,0,0,0,0,0,0,0,0,0,0,0,0,0,0,0,0,0,0,0,0,0,0,0,0,0,0,0,0,0,0,0,0,0,0,0,0,0,0,0,0,0,0],"sum_hessian":[6.58E2,4.37E2,2.21E2,1.39E2,2.98E2,2.16E2,5E0,6.3E1,7.6E1,2.68E2,3E1,6.6E1,1.5E2,6.2E1,1E0,4E0,7.2E1,2.59E2,9E0,1E0,2.9E1,6.4E1,2E0,3.4E1,1.16E2,6.1E1,1E0,5E0,6.7E1,2.11E2,4.8E1,8E0,1E0,1E0,2.8E1,6.2E1,2E0,2.8E1,6E0,3.6E1,8E1,1.2E1,4.9E1,6.3E1,4E0,1.01E2,1.1E2,2E0,4.6E1,2.7E1,1E0,9E0,5.3E1,2.5E1,3E0,1E0,5E0,1E0,3.5E1,1.9E1,6.1E1],"tree_param":{"num_deleted":"0","num_feature":"34","num_nodes":"61","size_leaf_vector":"0"}},{"base_weights":[1.18700285E1,1.0524386E1,1.411559E1,9.385142E0,1.1586755E1,1.3703028E1,2.336547E1,1.7440584E1,8.971586E0,1.0863877E1,1.57488165E1,1.4322168E1,1.0409015E1,6.783924E0,2.4590176E1,1.943405E1,6.975638E0,1.741829E1,8.796527E0,9.006536E0,1.1718724E1,4.1367674E0,1.6929562E1,1.5251361E1,1.1596305E1,1.3652817E1,8.221383E0,1.139595E1,8.385066E0,1.04293785E1,5.945486E0,1.2917468E1,9.035413E0,1.9175432E1,9.479425E0,1.0626222E1,1.5832371E1,8.131951E0,1.355447E1,9.140517E0,2.3490891E0,1.4654416E1,7.5115237E0,7.723114E0,9.948002E0,1.1073996E1,1.6981707E0,8.191506E0,9.910121E-1,6.851962E0,1.3859385E1,9.941758E0,4.054021E0,2.0001526E1,8.102417E0,2.5381E0,1.1370184E1,1.1411763E1,2.6327477E0,1.5996932E1,3.807912E0,2.7875855E0,9.164722E0,2.0916748E0,1.3847318E1,3.3521667E0,1.0182688E1,3.6933277E0,2.2182083E-1],"categories":[],"categories_nodes":[],"categories_segments":[],"categories_sizes":[],"default_left":[true,true,true,true,true,true,true,true,true,true,true,true,true,false,false,false,false,false,true,true,true,false,true,true,true,false,true,true,true,true,true,true,true,true,true,true,true,true,true,true,true,false,false,false,false,false,false,false,false,false,false,false,false,false,false,false,false,false,false,false,false,false,false,false,false,false,false,false,false],"id":5,"left_children":[1,3,5,7,9,11,13,15,17,19,21,23,25,-1,-1,-1,-1,-1,27,29,31,-1,33,35,37,-1,39,41,43,45,47,49,51,53,55,57,59,61,63,65,67,-1,-1,-1,-1,-1,-1,-1,-1,-1,-1,-1,-1,-1,-1,-1,-1,-1,-1,-1,-1,-1,-1,-1,-1,-1,-1,-1,-1],"loss_changes":[1.84275E3,3.9473828E2,6.1096094E2,5.297949E2,4.6373438E2,3.3223438E2,1.5949707E1,5.218872E1,1.3955762E2,1.8501172E2,3.2758154E2,3.1957812E2,1.7870068E2,0E0,0E0,0E0,0E0,0E0,1.14078125E2,2.0802686E2,2.7571094E2,0E0,2.5326074E2,2.1603906E2,2.560996E2,0E0,1.2425867E2,1.9369751E2,1.021543E2,2.119541E2,2.3669476E2,3.7351758E2,1.4480518E2,1.173877E1,7.613635E1,8.926074E1,1.8642969E2,9.5881714E1,8.181152E1,1.0461218E2,1.3478521E1,0E0,0E0,0E0,0E0,0E0,0E0,0E0,0E0,0E0,0E0,0E0,0E0,0E0,0E0,0E0,0E0,0E0,0E0,0E0,0E0,0E0,0E0,0E0,0E0,0E0,0E0,0E0,0E0],"parents":[2147483647,0,0,1,1,2,2,3,3,4,4,5,5,6,6,7,7,8,8,9,9,10,10,11,11,12,12,18,18,19,19,20,20,22,22,23,23,24,24,26,26,27,27,28,28,29,29,30,30,31,31,32,32,33,33,34,34,35,35,36,36,37,37,38,38,39,39,40,40],"right_children":[2,4,6,8,10,12,14,16,18,20,22,24,26,-1,-1,-1,-1,-1,28,30,32,-1,34,36,38,-1,40,42,44,46,48,50,52,54,56,58,60,62,64,66,68,-1,-1,-1,-1,-1,-1,-1,-1,-1,-1,-1,-1,-1,-1,-1,-1,-1,-1,-1,-1,-1,-1,-1,-1,-1,-1,-1,-1],"split_conditions":[1.0525E2,9.605E1,1.31E2,2.7E1,5.515E1,2.7005001E1,1.2765E2,2.705E1,2.85E0,1.4415E2,4.65E1,1.285E2,1.4655E2,2.0351772E0,7.377053E0,5.830215E0,2.0926914E0,5.2254868E0,1.545E2,1.35E2,4.895E1,1.2410302E0,1.6829999E2,4.735E1,9.355E1,4.095845E0,5.15E1,2.3505E1,1.7354999E2,5.5E0,9.99E1,7.115E1,2.675E3,5.575E1,1.68E2,5.075E1,3.82E3,1.4645E2,5.285E1,1.0745E2,4.8699997E1,4.396325E0,2.2534573E0,2.3169343E0,2.9844007E0,3.3221989E0,5.094512E-1,2.457452E0,2.9730365E-1,2.0555887E0,4.1578155E0,2.9825275E0,1.2162063E0,6.0004582E0,2.430725E0,7.6143E-1,3.4110553E0,3.4235291E0,7.898243E-1,4.79908E0,1.1423737E0,8.362757E-1,2.7494168E0,6.2750244E-1,4.1541953E0,1.00565E0,3.0548065E0,1.1079984E0,6.6546254E-2],"split_indices":[22,22,22,13,11,29,0,29,18,1,16,20,27,0,0,0,0,0,14,19,7,0,14,4,5,0,10,29,1,18,22,8,28,4,3,10,28,1,15,25,4,0,0,0,0,0,0,0,0,0,0,0,0,0,0,0,0,0,0,0,0,0,0,0,0,0,0,0,0],"split_type":[0,0,0,0,0,0,0,0,0,0,0,0,0,0,0,0,0,0,0,0,0,0,0,0,0,0,0,0,0,0,0,0,0,0,0,0,0,0,0,0,0,0,0,0,0,0,0,0,0,0,0,0,0,0,0,0,0,0,0,0,0,0,0,0,0,0,0,0,0],"sum_hessian":[6.58E2,4.15E2,2.43E2,2.05E2,2.1E2,2.35E2,8E0,8E0,1.97E2,1.82E2,2.8E1,1.95E2,4E1,1E0,7E0,6E0,2E0,2E0,1.95E2,6.1E1,1.21E2,3E0,2.5E1,1.42E2,5.3E1,1.4E1,2.6E1,2.3E1,1.72E2,4E1,2.1E1,8.1E1,4E1,1.8E1,7E0,1.8E1,1.24E2,2.1E1,3.2E1,2.2E1,4E0,1.1E1,1.2E1,1.25E2,4.7E1,3.7E1,3E0,1.4E1,7E0,1.2E1,6.9E1,3.3E1,7E0,1.6E1,2E0,2E0,5E0,1.6E1,2E0,1.22E2,2E0,4E0,1.7E1,1E0,3.1E1,4E0,1.8E1,2E0,2E0],"tree_param":{"num_deleted":"0","num_feature":"34","num_nodes":"69","size_leaf_vector":"0"}},{"base_weights":[8.450459E0,1.3036395E1,8.036118E0,1.0579745E1,1.7616375E1,1.2032375E1,7.663628E0,1.4410277E1,6.9750404E0,2.0590874E1,8.731316E0,1.2936499E1,6.476204E0,7.007754E0,9.251316E0,5.446048E0,1.6749575E1,7.9658594E0,3.1703491E0,5.2605796E0,1.318878E1,1.4541804E0,7.7033277E0,6.795017E0,1.2000821E1,1.0137527E1,6.6042385E0,1.7779236E0,1.7849052E1,1.9095802E0,8.242306E0,7.179896E-1,4.2170315E0,2.0433311E0,1.3793945E-1,1.078261E1,6.592892E0,1.2706849E1,1.058218E0,8.122503E0,1.1887263E1,8.015103E0,3.4362853E0,4.434387E0,1.8665442E1,4.8332515E0,9.463509E0,-6.2713623E-3,1.0832558E0,1.1651518E1,5.045782E0,4.7911983E0,7.082982E0,1.0672401E1,6.141931E0,1.7527029E1,9.834417E0,9.337066E0,4.039956E0,3.0849552E-1,4.1925244E0],"categories":[],"categories_nodes":[],"categories_segments":[],"categories_sizes":[],"default_left":[true,true,true,true,true,true,true,true,true,false,false,true,true,true,true,false,true,true,true,false,false,true,false,true,true,true,true,false,true,false,true,true,false,false,false,true,true,false,false,true,true,true,true,false,false,false,false,false,false,false,false,false,false,false,false,false,false,false,false,false,false],"id":6,"left_children":[1,3,5,7,9,11,13,15,17,-1,-1,19,21,23,25,-1,27,29,31,-1,-1,33,-1,35,37,39,41,-1,43,-1,45,47,-1,-1,-1,49,51,-1,-1,53,55,57,59,-1,-1,-1,-1,-1,-1,-1,-1,-1,-1,-1,-1,-1,-1,-1,-1,-1,-1],"loss_changes":[1.1474336E3,4.0994727E2,8.1134375E2,4.1038135E2,2.695005E2,1.6739355E2,5.1623047E2,2.65271E2,5.39104E1,0E0,0E0,1.195166E1,4.426178E1,3.422754E2,3.083877E2,0E0,1.8225854E2,1.1048462E1,1.2373257E1,0E0,0E0,2.044537E0,0E0,2.3921875E2,1.02440186E2,3.1948535E2,1.6464856E2,0E0,4.8649414E1,0E0,1.6707703E1,8.0043757E-1,0E0,0E0,0E0,2.5950195E1,2.918877E2,0E0,0E0,2.2736572E2,5.338633E2,1.14673584E2,3.4186996E1,0E0,0E0,0E0,0E0,0E0,0E0,0E0,0E0,0E0,0E0,0E0,0E0,0E0,0E0,0E0,0E0,0E0,0E0],"parents":[2147483647,0,0,1,1,2,2,3,3,4,4,5,5,6,6,7,7,8,8,11,11,12,12,13,13,14,14,16,16,17,17,18,18,21,21,23,23,24,24,25,25,26,26,28,28,30,30,31,31,35,35,36,36,39,39,40,40,41,41,42,42],"right_children":[2,4,6,8,10,12,14,16,18,-1,-1,20,22,24,26,-1,28,30,32,-1,-1,34,-1,36,38,40,42,-1,44,-1,46,48,-1,-1,-1,50,52,-1,-1,54,56,58,60,-1,-1,-1,-1,-1,-1,-1,-1,-1,-1,-1,-1,-1,-1,-1,-1,-1,-1],"split_conditions":[5.85E-1,4.45E0,2.45E1,1.105E2,1.695E3,2.709E1,1.3489E2,1.0245E2,5.415E1,6.1772623E0,2.6193948E0,4.715E1,6.25E1,4.48E2,8.1E-1,1.6338145E0,8.35E1,7.1600006E1,6.1300003E1,1.578174E0,3.956634E0,2.1695E2,2.3109984E0,4.75E1,5.815E1,3.0595E2,1.235E2,5.333771E-1,3.05E1,5.7287407E-1,6.35E1,1.6725E2,1.2651095E0,6.129994E-1,4.1381836E-2,5.91E1,3.455E1,3.8120549E0,3.1746542E-1,4.69E1,1.641E2,4.92E1,8.4000003E-1,1.3303162E0,5.5996327E0,1.4499755E0,2.8390527E0,-1.8814087E-3,3.2497674E-1,3.4954555E0,1.5137347E0,1.4373596E0,2.1248946E0,3.2017205E0,1.8425794E0,5.258109E0,2.9503253E0,2.8011198E0,1.2119869E0,9.254866E-2,1.2577574E0],"split_indices":[21,18,13,16,28,29,24,25,7,0,0,4,20,2,21,0,19,5,12,0,0,0,0,20,12,2,19,0,13,0,17,0,0,0,0,9,7,0,0,10,0,7,21,0,0,0,0,0,0,0,0,0,0,0,0,0,0,0,0,0,0],"split_type":[0,0,0,0,0,0,0,0,0,0,0,0,0,0,0,0,0,0,0,0,0,0,0,0,0,0,0,0,0,0,0,0,0,0,0,0,0,0,0,0,0,0,0,0,0,0,0,0,0,0,0,0,0,0,0,0,0,0,0,0,0],"sum_hessian":[6.58E2,5.2E1,6.06E2,3.6E1,1.6E1,4.9E1,5.57E2,1.6E1,2E1,1.1E1,5E0,4.1E1,8E0,3.98E2,1.59E2,4E0,1.2E1,1.5E1,5E0,2E0,3.9E1,2E0,6E0,3.84E2,1.4E1,1.17E2,4.2E1,1E0,1.1E1,1E0,1.4E1,2E0,3E0,1E0,1E0,1.6E1,3.68E2,1.3E1,1E0,5.7E1,6E1,2.8E1,1.4E1,1E0,1E1,5E0,9E0,1E0,1E0,1.3E1,3E0,8.1E1,2.87E2,2.3E1,3.4E1,1.4E1,4.6E1,2E1,8E0,3E0,1.1E1],"tree_param":{"num_deleted":"0","num_feature":"34","num_nodes":"61","size_leaf_vector":"0"}},{"base_weights":[6.012683E0,9.584796E0,5.6908793E0,1.5523098E1,8.184141E0,5.4389563E0,9.319965E0,5.8241706E0,1.7462194E1,1.098801E1,6.4159384E0,4.1684747E0,6.0783052E0,5.439118E0,1.161447E1,6.49225E0,1.9580235E1,4.8314786E0,8.390005E0,3.3470058E0,5.373213E0,4.091794E0,6.625205E0,1.6896164E0,6.5481505E0,1.2578312E1,5.6289725E0,7.6284475E0,3.3758836E0,5.831829E0,2.155938E1,6.5619817E0,2.976387E0,4.8793616E0,9.535407E0,5.728165E0,2.6781123E0,6.33808E0,2.978378E0,5.0630326E0,1.7304534E0,8.768129E0,5.954086E0,1.54665E-1,2.034688E0,7.324287E0,1.7783114E0,1.8941269E0,1.30666485E1,1.3274899E0,6.372471E0,3.07129E0,7.795446E0,3.6595106E0,8.660431E-1,1.012605E1,2.7004547E0,1.8286791E0,7.1430387E0,1.3763274E0,4.190082E0,8.693085E-2,6.836433E0,-1.1096137E0,4.402687E0,7.736355E0,3.4937298E0,3.3345728E0,-2.2956371E0,6.1167593E0,1.0263817E1,1.175878E1,5.6324005E0,7.7233076E0,1.8665504E0,5.3376975E0,1.3699162E1],"categories":[],"categories_nodes":[],"categories_segments":[],"categories_sizes":[],"default_left":[true,true,true,true,true,true,true,false,false,true,true,true,true,true,true,true,true,true,true,true,true,true,true,true,true,true,true,false,false,false,false,true,true,false,true,true,true,true,true,true,true,true,true,false,false,true,false,false,true,false,false,false,false,false,false,false,false,false,false,false,false,false,false,false,false,false,false,false,false,false,false,false,false,false,false,false,false],"id":7,"left_children":[1,3,5,7,9,11,13,-1,-1,15,17,19,21,23,25,27,29,31,33,35,37,39,41,43,45,47,49,-1,-1,-1,-1,51,53,-1,55,57,59,61,63,65,67,69,71,-1,-1,73,-1,-1,75,-1,-1,-1,-1,-1,-1,-1,-1,-1,-1,-1,-1,-1,-1,-1,-1,-1,-1,-1,-1,-1,-1,-1,-1,-1,-1,-1,-1],"loss_changes":[7.029863E2,3.1378516E2,5.0425977E2,6.756177E1,1.5260278E2,4.376621E2,2.7520312E2,0E0,0E0,4.9093762E2,5.329883E1,1.7400879E2,3.8247266E2,5.54693E1,6.1885742E1,1.6736938E1,1.0319824E1,4.1463623E1,1.7264404E0,1.726029E2,1.5904663E2,1.8388635E2,3.706123E2,2.3336449E0,3.1399658E1,7.4382324E1,7.5313263E0,0E0,0E0,0E0,0E0,1.4808716E1,1.2688591E1,0E0,4.951172E0,1.2486969E2,1.7924939E2,1.6763086E2,1.4462683E2,2.2049109E2,1.7557155E2,2.0688135E2,3.5764307E2,0E0,0E0,7.3615723E0,0E0,0E0,1.4874023E1,0E0,0E0,0E0,0E0,0E0,0E0,0E0,0E0,0E0,0E0,0E0,0E0,0E0,0E0,0E0,0E0,0E0,0E0,0E0,0E0,0E0,0E0,0E0,0E0,0E0,0E0,0E0,0E0],"parents":[2147483647,0,0,1,1,2,2,3,3,4,4,5,5,6,6,9,9,10,10,11,11,12,12,13,13,14,14,15,15,16,16,17,17,18,18,19,19,20,20,21,21,22,22,23,23,24,24,25,25,26,26,31,31,32,32,34,34,35,35,36,36,37,37,38,38,39,39,40,40,41,41,42,42,45,45,48,48],"right_children":[2,4,6,8,10,12,14,-1,-1,16,18,20,22,24,26,28,30,32,34,36,38,40,42,44,46,48,50,-1,-1,-1,-1,52,54,-1,56,58,60,62,64,66,68,70,72,-1,-1,74,-1,-1,76,-1,-1,-1,-1,-1,-1,-1,-1,-1,-1,-1,-1,-1,-1,-1,-1,-1,-1,-1,-1,-1,-1,-1,-1,-1,-1,-1,-1],"split_conditions":[5.85E-1,3.4E1,6.205E1,1.025E2,9.395E1,1.0011E2,1.009E2,1.7472513E0,5.2386584E0,4.3E1,4.1499996E0,4.5699997E1,1.4065E2,9.745E1,7.65E-1,1.5212E2,9.995E1,5.65E-1,1.5615E2,1.5820001E2,1.37E2,2.7285E2,2.2645E1,5.33E1,5.75E1,5.95E-1,1.691E2,2.2885344E0,1.0127652E0,1.7495488E0,6.467814E0,6.5E-1,5.375E1,1.4638085E0,1.17850006E2,1.5145E2,1.7005E2,4.665E1,1.46E2,4.15E1,4.92E1,3.069E2,6.235E1,4.63995E-2,6.104064E-1,6.48E1,5.3349346E-1,5.682381E-1,6.75E1,3.9824697E-1,1.9117414E0,9.21387E-1,2.3386338E0,1.0978532E0,2.5981295E-1,3.037815E0,8.1013644E-1,5.486038E-1,2.1429117E0,4.1289824E-1,1.2570246E0,2.6079256E-2,2.05093E0,-3.328841E-1,1.3208061E0,2.3209066E0,1.048119E0,1.0003719E0,-6.8869114E-1,1.8350278E0,3.0791452E0,3.527634E0,1.6897203E0,2.3169923E0,5.5996513E-1,1.6013093E0,4.109749E0],"split_indices":[21,13,12,16,8,24,22,0,0,12,18,6,1,27,21,24,0,23,1,14,19,2,29,6,13,21,0,0,0,0,0,26,7,0,5,14,14,4,19,13,12,2,27,0,0,6,0,0,20,0,0,0,0,0,0,0,0,0,0,0,0,0,0,0,0,0,0,0,0,0,0,0,0,0,0,0,0],"split_type":[0,0,0,0,0,0,0,0,0,0,0,0,0,0,0,0,0,0,0,0,0,0,0,0,0,0,0,0,0,0,0,0,0,0,0,0,0,0,0,0,0,0,0,0,0,0,0,0,0,0,0,0,0,0,0,0,0,0,0,0,0,0,0,0,0,0,0,0,0,0,0,0,0,0,0,0,0],"sum_hessian":[6.58E2,5.2E1,6.06E2,8E0,4.4E1,5.69E2,3.7E1,2E0,6E0,1.5E1,2.9E1,1.93E2,3.76E2,1.5E1,2.2E1,1.1E1,4E0,1.8E1,1.1E1,1.17E2,7.6E1,8.3E1,2.93E2,4E0,1.1E1,1.8E1,4E0,7E0,4E0,1E0,3E0,8E0,1E1,4E0,7E0,2.4E1,9.3E1,5.3E1,2.3E1,5.8E1,2.5E1,6.7E1,2.26E2,1E0,3E0,9E0,2E0,1E0,1.7E1,1E0,3E0,3E0,5E0,7E0,3E0,6E0,1E0,7E0,1.7E1,5.1E1,4.2E1,4E0,4.9E1,6E0,1.7E1,2E1,3.8E1,1.8E1,7E0,2.6E1,4.1E1,1E1,2.16E2,8E0,1E0,2E0,1.5E1],"tree_param":{"num_deleted":"0","num_feature":"34","num_nodes":"77","size_leaf_vector":"0"}},{"base_weights":[4.303459E0,7.245849E0,4.039456E0,1.1642383E1,6.2055235E0,5.5973587E0,3.644085E0,5.5577145E0,1.37584305E1,8.411524E0,4.8221393E0,3.6948597E0,6.5988026E0,7.716377E0,3.4893649E0,4.8196826E0,1.5349638E1,1.2511683E0,5.1725745E0,7.8841777E0,2.6892002E0,7.380153E0,2.4997604E0,1.2350076E1,2.2253027E0,3.2505066E0,5.8517385E0,5.8782063E0,2.162108E0,1.7583809E0,-1.3523483E-1,3.2681115E0,6.100605E0,9.245407E0,2.5336597E0,4.420078E0,1.4116883E-1,7.9497747E0,2.327878E0,-2.4546344E0,3.5300457E0,1.6039085E0,1.3492858E1,1.3843536E-1,4.7992783E0,4.926787E0,2.779665E0,6.296031E0,-2.0227458E0,3.549224E0,1.3354034E0,7.6839085E0,3.8394563E0,5.1770077E0,-2.8035927E-1,-2.3261516E0,1.8541763E0,6.3256493E0,1.0510108E1,3.0825005E0,4.2673748E-2,4.7473917E0,-1.704455E0,2.6522293E0,1.4662629E1,-4.9565506E-1,9.3774414E-1,7.0280066E0,3.960712E0,6.5053067E0,2.5373688E0,6.746642E0,-1.5103874E0],"categories":[],"categories_nodes":[],"categories_segments":[],"categories_sizes":[],"default_left":[true,true,true,true,true,true,true,false,false,true,true,true,true,true,true,true,false,true,true,true,true,true,true,true,true,true,true,false,false,false,false,true,true,false,false,true,true,true,true,false,true,false,true,true,false,true,true,true,false,false,false,false,false,false,false,false,false,false,false,false,false,false,false,false,false,false,false,false,false,false,false,false,false],"id":8,"left_children":[1,3,5,7,9,11,13,-1,-1,15,17,19,21,23,25,27,-1,29,31,33,35,37,39,41,43,45,47,-1,-1,-1,-1,49,51,-1,-1,53,55,57,59,-1,61,-1,63,65,-1,67,69,71,-1,-1,-1,-1,-1,-1,-1,-1,-1,-1,-1,-1,-1,-1,-1,-1,-1,-1,-1,-1,-1,-1,-1,-1,-1],"loss_changes":[4.8264258E2,1.7016553E2,3.5348438E2,3.9413574E1,9.676697E1,2.0615308E2,2.799165E2,0E0,0E0,3.247494E2,3.1070007E1,1.6417108E2,2.313689E2,4.0506512E2,2.4675098E2,2.1047974E1,0E0,3.0505996E0,2.7782349E1,3.4841522E1,1.6255823E2,1.6855615E2,8.012713E1,8.888342E1,4.7679516E1,3.25688E2,1.5967554E2,0E0,0E0,0E0,0E0,1.2367477E0,3.1359375E1,0E0,0E0,7.972525E1,7.193772E1,1.7469824E2,1.3664188E1,0E0,8.4558075E1,0E0,6.2559692E1,3.505802E0,0E0,1.6094824E2,2.8860938E2,1.5089636E2,0E0,0E0,0E0,0E0,0E0,0E0,0E0,0E0,0E0,0E0,0E0,0E0,0E0,0E0,0E0,0E0,0E0,0E0,0E0,0E0,0E0,0E0,0E0,0E0,0E0],"parents":[2147483647,0,0,1,1,2,2,3,3,4,4,5,5,6,6,9,9,10,10,11,11,12,12,13,13,14,14,15,15,17,17,18,18,19,19,20,20,21,21,22,22,23,23,24,24,25,25,26,26,31,31,32,32,35,35,36,36,37,37,38,38,40,40,42,42,43,43,45,45,46,46,47,47],"right_children":[2,4,6,8,10,12,14,-1,-1,16,18,20,22,24,26,28,-1,30,32,34,36,38,40,42,44,46,48,-1,-1,-1,-1,50,52,-1,-1,54,56,58,60,-1,62,-1,64,66,-1,68,70,72,-1,-1,-1,-1,-1,-1,-1,-1,-1,-1,-1,-1,-1,-1,-1,-1,-1,-1,-1,-1,-1,-1,-1,-1,-1],"split_conditions":[5.85E-1,3.4E1,3.35E1,1.055E2,9.395E1,4.825E1,2.85E0,1.6673144E0,4.127529E0,4.3E1,4.96E2,1.024E2,1.95E0,1.338E2,2.1775E2,1.275E2,4.604892E0,1.5715E2,4.865E1,5.105E1,4.915E1,2.805E3,4.625E1,7.45E1,1.5665E2,1.5615E2,1.085E0,1.763462E0,6.486324E-1,5.275143E-1,-4.0570453E-2,4.7800003E1,5.3499997E-1,2.7736223E0,7.600979E-1,7.9E0,1.282E2,1.2823E2,5.665E1,-7.3639035E-1,1.32E2,4.811726E-1,4.265E1,1.468E2,1.4397836E0,4.54E1,4.7E1,5.775E1,-6.068238E-1,1.0647672E0,4.0062106E-1,2.3051727E0,1.151837E0,1.5531024E0,-8.410779E-2,-6.978455E-1,5.562529E-1,1.8976948E0,3.1530325E0,9.2475015E-1,1.2802125E-2,1.4242176E0,-5.113365E-1,7.9566884E-1,4.398789E0,-1.4869653E-1,2.8132325E-1,2.108402E0,1.1882136E0,1.9515921E0,7.612107E-1,2.0239928E0,-4.5311624E-1],"split_indices":[21,13,13,16,8,11,18,0,0,12,28,22,26,27,0,16,0,0,7,4,4,28,9,5,1,14,21,0,0,0,0,7,21,0,0,18,25,24,7,0,19,0,12,0,0,10,20,9,0,0,0,0,0,0,0,0,0,0,0,0,0,0,0,0,0,0,0,0,0,0,0,0,0],"split_type":[0,0,0,0,0,0,0,0,0,0,0,0,0,0,0,0,0,0,0,0,0,0,0,0,0,0,0,0,0,0,0,0,0,0,0,0,0,0,0,0,0,0,0,0,0,0,0,0,0,0,0,0,0,0,0,0,0,0,0,0,0,0,0,0,0,0,0,0,0,0,0,0,0],"sum_hessian":[6.58E2,5.2E1,6.06E2,8E0,4.4E1,1.2E2,4.86E2,3E0,5E0,1.5E1,2.9E1,4.3E1,7.7E1,1.6E1,4.7E2,1.1E1,4E0,3E0,2.6E1,7E0,3.6E1,6.4E1,1.3E1,8E0,8E0,4.29E2,4.1E1,7E0,4E0,2E0,1E0,1E1,1.6E1,5E0,2E0,2.1E1,1.5E1,5.7E1,7E0,2E0,1.1E1,1E0,7E0,5E0,3E0,9.2E1,3.37E2,3.9E1,2E0,8E0,2E0,8E0,8E0,1.8E1,3E0,6E0,9E0,3.7E1,2E1,5E0,2E0,9E0,2E0,1E0,6E0,3E0,2E0,2.7E1,6.5E1,1.9E1,3.18E2,3.7E1,2E0],"tree_param":{"num_deleted":"0","num_feature":"34","num_nodes":"73","size_leaf_vector":"0"}},{"base_weights":[3.0783832E0,1.9736272E0,3.5589123E0,6.201861E0,1.7211053E0,3.3053858E0,5.8692417E0,7.4730935E0,3.1817634E0,2.596014E0,9.399124E-1,3.7144752E0,1.7868475E0,4.0693197E0,8.023385E0,2.074051E0,8.027259E0,1.9843068E0,5.5222626E0,4.2897326E-1,3.3288486E0,2.571618E0,4.292547E0,-1.8479576E0,2.3163514E0,3.004653E0,7.93999E0,1.0450189E1,5.30842E0,3.3433175E-1,3.0531094E0,9.889974E0,3.0349157E0,-6.91255E-1,1.5652772E0,6.827544E0,1.0105387E0,2.1939864E0,6.6496286E0,2.6586964E0,5.096593E0,2.283498E0,-5.1252112E0,1.6021712E0,4.487333E0,9.705917E-1,3.402745E0,1.3511225E0,6.037695E0,-5.14997E-1,4.853841E0,1.737362E0,4.8314157E0,-2.1661123E-2,3.7165616E0,3.803232E-1,-2.590287E0,3.1865232E0,6.727266E-1,-6.651211E-1,8.187175E0,-6.28818E-1,2.7546985E0,3.5068564E0,1.0499206E0,7.5582113E0,2.3130596E0,4.828514E0,9.421997E-1,4.468636E0,7.6289763E0,5.1822203E-1,5.5549393E0,-8.463966E0,-5.0515366E-1,-7.591938E-1,2.0254688E0,5.575568E0,-9.87443E-1,1.4367243E0,1.8092854E-1,1.1082077E-1,3.5898685E0,6.929225E0,1.9448929E0],"categories":[],"categories_nodes":[],"categories_segments":[],"categories_sizes":[],"default_left":[true,true,true,true,true,true,true,true,false,true,true,true,true,true,true,false,false,true,true,true,true,true,true,true,true,true,false,false,true,true,true,false,true,true,true,true,true,true,true,true,true,true,true,true,true,true,true,false,true,false,false,false,false,false,false,false,false,false,false,false,false,false,false,false,false,false,false,false,false,false,false,false,false,false,false,false,false,false,false,false,false,false,false,false,false],"id":9,"left_children":[1,3,5,7,9,11,13,15,-1,17,19,21,23,25,27,-1,-1,29,31,33,35,37,39,41,43,45,-1,-1,47,49,51,-1,53,55,57,59,61,63,65,67,69,71,73,75,77,79,81,-1,83,-1,-1,-1,-1,-1,-1,-1,-1,-1,-1,-1,-1,-1,-1,-1,-1,-1,-1,-1,-1,-1,-1,-1,-1,-1,-1,-1,-1,-1,-1,-1,-1,-1,-1,-1,-1],"loss_changes":[3.4281738E2,2.0500568E2,2.4886377E2,1.8454102E1,1.2878668E2,2.5116797E2,1.3795105E2,4.2947693E0,0E0,1.5014276E2,1.242939E2,2.0433447E2,1.7749847E2,8.328842E1,6.971106E1,0E0,0E0,1.330051E2,1.3294498E2,1.1055311E2,1.3909958E2,1.5788928E2,2.6889307E2,1.7418135E2,1.1529776E2,1.4511673E1,0E0,0E0,2.358786E1,1.2149472E2,9.923694E1,0E0,2.2999039E1,9.052344E1,6.0079224E1,7.675629E1,3.60438E1,1.5252713E2,1.7978577E1,2.6733795E2,1.9331128E2,3.1771286E1,1.0370108E2,6.251091E1,1.1870465E2,1.5804944E0,1.0690109E1,0E0,1.9363098E1,0E0,0E0,0E0,0E0,0E0,0E0,0E0,0E0,0E0,0E0,0E0,0E0,0E0,0E0,0E0,0E0,0E0,0E0,0E0,0E0,0E0,0E0,0E0,0E0,0E0,0E0,0E0,0E0,0E0,0E0,0E0,0E0,0E0,0E0,0E0,0E0],"parents":[2147483647,0,0,1,1,2,2,3,3,4,4,5,5,6,6,7,7,9,9,10,10,11,11,12,12,13,13,14,14,17,17,18,18,19,19,20,20,21,21,22,22,23,23,24,24,25,25,28,28,29,29,30,30,32,32,33,33,34,34,35,35,36,36,37,37,38,38,39,39,40,40,41,41,42,42,43,43,44,44,45,45,46,46,48,48],"right_children":[2,4,6,8,10,12,14,16,-1,18,20,22,24,26,28,-1,-1,30,32,34,36,38,40,42,44,46,-1,-1,48,50,52,-1,54,56,58,60,62,64,66,68,70,72,74,76,78,80,82,-1,84,-1,-1,-1,-1,-1,-1,-1,-1,-1,-1,-1,-1,-1,-1,-1,-1,-1,-1,-1,-1,-1,-1,-1,-1,-1,-1,-1,-1,-1,-1,-1,-1,-1,-1,-1,-1],"split_conditions":[9.5850006E1,2.9E1,6.205E1,2.705E1,1.01600006E2,5.1449997E1,9.25E1,1.536E2,9.5452905E-1,1.555E2,9.6E1,3.975E1,1.013E2,1.6295E2,1.5025E2,6.222153E-1,2.4081779E0,5.055E1,4.1949997E1,1.1745E2,1.22095E2,4.354E2,1.4315E2,5.65E-1,5.15E1,7.785E1,2.381997E0,3.1350567E0,1.21649994E2,9.665E1,3.55E1,2.9669921E0,1.5305E2,1.45E0,7.7E1,1.457E2,4.8500004E0,6.995E1,4.8550003E1,5.45E1,1.7095E2,1.7E2,1.7285E2,5.11E1,5.315E1,4.695E1,4.8550003E1,4.0533677E-1,7E1,-1.5449911E-1,1.4561523E0,5.2120864E-1,1.4494247E0,-6.4983373E-3,1.1149685E0,1.1409696E-1,-7.7708614E-1,9.55957E-1,2.0181797E-1,-1.9953634E-1,2.4561524E0,-1.8864541E-1,8.264096E-1,1.052057E0,3.149762E-1,2.2674634E0,6.939179E-1,1.4485543E0,2.8265992E-1,1.3405908E0,2.288693E0,1.5546662E-1,1.6664819E0,-2.53919E0,-1.515461E-1,-2.2775814E-1,6.076407E-1,1.6726705E0,-2.962329E-1,4.310173E-1,5.4278564E-2,3.3246234E-2,1.0769606E0,2.0787675E0,5.834679E-1],"split_indices":[22,13,12,29,25,7,20,1,0,20,8,12,5,14,0,0,0,9,12,25,24,2,1,23,4,25,0,0,8,25,7,0,14,26,5,1,18,15,10,15,14,1,0,6,4,4,6,0,12,0,0,0,0,0,0,0,0,0,0,0,0,0,0,0,0,0,0,0,0,0,0,0,0,0,0,0,0,0,0,0,0,0,0,0,0],"split_type":[0,0,0,0,0,0,0,0,0,0,0,0,0,0,0,0,0,0,0,0,0,0,0,0,0,0,0,0,0,0,0,0,0,0,0,0,0,0,0,0,0,0,0,0,0,0,0,0,0,0,0,0,0,0,0,0,0,0,0,0,0,0,0,0,0,0,0,0,0,0,0,0,0,0,0,0,0,0,0,0,0,0,0,0,0],"sum_hessian":[6.58E2,2.01E2,4.57E2,1E1,1.91E2,4.14E2,4.3E1,6E0,4E0,8.9E1,1.02E2,3.25E2,8.9E1,2.5E1,1.8E1,1E0,5E0,7.5E1,1.4E1,8.5E1,1.7E1,1.11E2,2.14E2,1.1E1,7.8E1,2.1E1,4E0,8E0,1E1,3E1,4.5E1,4E0,1E1,4.3E1,4.2E1,6E0,1.1E1,1.03E2,8E0,7.2E1,1.42E2,5E0,6E0,6E1,1.8E1,4E0,1.7E1,2E0,8E0,2.6E1,4E0,2.7E1,1.8E1,2E0,8E0,2.8E1,1.5E1,1.4E1,2.8E1,1E0,5E0,6E0,5E0,4.7E1,5.6E1,6E0,2E0,3.1E1,4.1E1,1.16E2,2.6E1,4E0,1E0,3E0,3E0,9E0,5.1E1,1.5E1,3E0,2E0,2E0,1E0,1.6E1,6E0,2E0],"tree_param":{"num_deleted":"0","num_feature":"34","num_nodes":"85","size_leaf_vector":"0"}},{"base_weights":[2.2087045E0,4.3037887E0,2.0221343E0,1.8427073E0,5.0575724E0,1.8164474E0,3.3543909E0,2.4912953E0,5.6270725E-1,7.8099346E0,3.879787E0,1.2776664E0,2.3265502E0,1.2666363E0,3.9839106E0,1.0292244E0,3.4551072E0,-7.603836E-2,1.226799E0,3.361847E0,1.0956367E1,5.3574915E0,2.2519522E0,1.6311655E0,-4.3966633E-1,2.5781322E0,-6.2665105E-1,4.0739684E0,5.926107E-2,2.8672414E0,5.0422273E0,2.6641464E-1,1.1533232E0,9.419632E-2,-1.6418202E-1,1.4508705E0,4.7892E0,2.513279E0,1.2142328E1,2.9590092E0,7.0862875E0,1.0781064E0,3.2910347E0,6.6612065E-1,2.3753648E0,-1.3120086E0,3.1954815E0,4.8369594E0,2.1860952E0,1.6529785E0,-1.2250676E0,-1.9678535E0,9.752894E-1,3.5918968E0,6.1624485E-1,6.138043E0,2.5914514E0,3.8850021E0,1.0617657E0,1.6123263E0,7.249832E-3,3.4957898E0,9.2887497E-1,-4.7207895E-1,2.0535266E0,-4.773331E-3,2.8187706E0,1.4593506E0,-2.392488E0,4.9722953E0,-2.6860905E-1,5.987136E0,-7.833628E-1,1.1054581E1,2.050286E0,-2.824224E-1,3.0373867E0,-1.6840082E0,3.049797E-1,1.7603569E0,2.7673721E-2,4.0926857E0,8.703629E-1,2.6771965E0,-8.604304E-1,5.712204E-1,6.724844E0,-1.9685287E0,3.8235059E0],"categories":[],"categories_nodes":[],"categories_segments":[],"categories_sizes":[],"default_left":[true,true,true,true,true,true,true,true,true,true,true,true,true,true,true,true,false,true,false,true,true,true,true,true,true,true,true,false,true,true,true,false,false,false,false,false,false,false,false,true,false,true,true,true,true,true,true,true,true,true,true,false,true,true,true,true,true,false,false,false,false,false,false,false,false,false,false,false,false,false,false,false,false,false,false,false,false,false,false,false,false,false,false,false,false,false,false,false,false],"id":10,"left_children":[1,3,5,7,9,11,13,15,17,19,21,23,25,27,29,31,-1,33,-1,35,37,39,41,43,45,47,49,-1,51,53,55,-1,-1,-1,-1,-1,-1,-1,-1,57,-1,59,61,63,65,67,69,71,73,75,77,-1,79,81,83,85,87,-1,-1,-1,-1,-1,-1,-1,-1,-1,-1,-1,-1,-1,-1,-1,-1,-1,-1,-1,-1,-1,-1,-1,-1,-1,-1,-1,-1,-1,-1,-1,-1],"loss_changes":[2.488872E2,8.900195E1,1.602417E2,1.0220829E1,9.936688E1,1.4213965E2,1.00096436E2,9.126373E0,2.6383984E0,1.1711798E2,6.009897E1,1.5794974E2,2.0221802E2,6.754864E1,5.7631958E1,1.6605616E-1,0E0,7.548578E-2,0E0,9.417313E0,2.956195E1,4.1228912E1,1.59674835E1,1.5282764E2,1.468917E2,2.0992627E2,3.2036705E1,0E0,2.9772642E1,4.9984802E1,6.46615E1,0E0,0E0,0E0,0E0,0E0,0E0,0E0,0E0,9.92971E0,0E0,5.1369667E0,6.2215424E-1,1.5098819E2,1.2771283E2,1.1428415E2,5.6730995E1,2.3740717E2,2.350813E2,1.4254747E1,1.3153206E1,0E0,8.134648E0,2.9147797E1,2.9693748E1,6.1490967E1,6.932626E1,0E0,0E0,0E0,0E0,0E0,0E0,0E0,0E0,0E0,0E0,0E0,0E0,0E0,0E0,0E0,0E0,0E0,0E0,0E0,0E0,0E0,0E0,0E0,0E0,0E0,0E0,0E0,0E0,0E0,0E0,0E0,0E0],"parents":[2147483647,0,0,1,1,2,2,3,3,4,4,5,5,6,6,7,7,8,8,9,9,10,10,11,11,12,12,13,13,14,14,15,15,17,17,19,19,20,20,21,21,22,22,23,23,24,24,25,25,26,26,28,28,29,29,30,30,39,39,41,41,42,42,43,43,44,44,45,45,46,46,47,47,48,48,49,49,50,50,52,52,53,53,54,54,55,55,56,56],"right_children":[2,4,6,8,10,12,14,16,18,20,22,24,26,28,30,32,-1,34,-1,36,38,40,42,44,46,48,50,-1,52,54,56,-1,-1,-1,-1,-1,-1,-1,-1,58,-1,60,62,64,66,68,70,72,74,76,78,-1,80,82,84,86,88,-1,-1,-1,-1,-1,-1,-1,-1,-1,-1,-1,-1,-1,-1,-1,-1,-1,-1,-1,-1,-1,-1,-1,-1,-1,-1,-1,-1,-1,-1,-1,-1],"split_conditions":[5.85E-1,6.95E1,5.765E1,1.5865E2,5E-1,1.1195E2,9.87E1,4.85E1,1.675E2,1.659E3,1.175E2,1.3499999E0,5.415E1,4.45E1,1.6515E2,7.53E1,1.0365322E0,1.621E2,3.6803973E-1,1.636E2,9.795E1,1.065E2,4.3500004E0,7.25E-1,2.017E2,1.1655E2,6.35E-1,1.2221906E0,4.94E1,1.6005E2,1.925E2,7.99244E-2,3.4599698E-1,2.8258897E-2,-4.9254607E-2,4.3526116E-1,1.43676E0,7.5398374E-1,3.6426985E0,5.9075E1,2.1258864E0,1.5785E2,1.723E2,1.245E2,1.19E2,3.2E1,9.535E1,1.295E2,1.9720001E1,1.6104999E2,1.21E2,-5.903561E-1,1.455E2,1.5245001E2,1.08399994E2,1.035E2,5.08E1,1.1655006E0,3.1852973E-1,4.836979E-1,2.1749497E-3,1.0487369E0,2.786625E-1,-1.4162369E-1,6.16058E-1,-1.4319993E-3,8.4563124E-1,4.378052E-1,-7.1774644E-1,1.4916886E0,-8.0582716E-2,1.7961408E0,-2.3500885E-1,3.3163743E0,6.1508584E-1,-8.472672E-2,9.11216E-1,-5.052025E-1,9.149392E-2,5.281071E-1,8.302117E-3,1.2278057E0,2.6110888E-1,8.03159E-1,-2.5812915E-1,1.7136613E-1,2.0174532E0,-5.9055865E-1,1.1470518E0],"split_indices":[21,20,12,3,32,25,22,13,1,28,16,26,12,13,3,5,0,0,0,0,0,16,18,21,0,25,21,0,4,14,1,0,0,0,0,0,0,0,0,15,0,0,0,16,1,13,5,20,29,0,20,0,1,3,27,16,11,0,0,0,0,0,0,0,0,0,0,0,0,0,0,0,0,0,0,0,0,0,0,0,0,0,0,0,0,0,0,0,0],"split_type":[0,0,0,0,0,0,0,0,0,0,0,0,0,0,0,0,0,0,0,0,0,0,0,0,0,0,0,0,0,0,0,0,0,0,0,0,0,0,0,0,0,0,0,0,0,0,0,0,0,0,0,0,0,0,0,0,0,0,0,0,0,0,0,0,0,0,0,0,0,0,0,0,0,0,0,0,0,0,0,0,0,0,0,0,0,0,0,0,0],"sum_hessian":[6.58E2,5.2E1,6.06E2,1.3E1,3.9E1,5.27E2,7.9E1,8E0,5E0,1E1,2.9E1,2.58E2,2.69E2,1.9E1,6E1,4E0,4E0,3E0,2E0,5E0,5E0,1.4E1,1.5E1,2.14E2,4.4E1,2.48E2,2.1E1,5E0,1.4E1,3.1E1,2.9E1,1E0,3E0,1E0,2E0,3E0,2E0,1E0,4E0,7E0,7E0,8E0,7E0,9.4E1,1.2E2,3.6E1,8E0,3.5E1,2.13E2,4E0,1.7E1,4E0,1E1,2.3E1,8E0,1.9E1,1E1,4E0,3E0,5E0,3E0,6E0,1E0,5.2E1,4.2E1,1.9E1,1.01E2,1E1,2.6E1,5E0,3E0,2.9E1,6E0,2E0,2.11E2,2E0,2E0,1.3E1,4E0,5E0,5E0,1.9E1,4E0,3E0,5E0,2E0,1.7E1,2E0,8E0],"tree_param":{"num_deleted":"0","num_feature":"34","num_nodes":"89","size_leaf_vector":"0"}},{"base_weights":[1.5882835E0,4.6273456E0,1.5006022E0,-2.5547662E-1,6.5250063E0,3.4918315E0,1.3695451E0,4.6495247E-1,-1.1308899E0,1.3862102E-1,7.6735654E0,1.4686608E0,4.3366237E0,2.56764E0,1.168378E0,6.195628E-1,5.607605E-4,7.638397E-1,8.288154E0,-3.2416862E-1,3.0516815E0,6.003059E0,2.6032715E0,3.758817E0,1.2890486E0,1.0314541E0,3.2199557E0,8.925488E0,1.2760696E0,8.3259887E-1,-2.1440582E0,5.565872E-1,3.374766E0,6.710271E0,1.4089279E0,8.105638E-1,4.5362854E0,4.846468E0,1.5525236E0,8.124162E-1,7.373342E0,2.2739866E0,8.074087E-1,4.296387E0,7.7436966E-1,3.2110977E-1,1.7922821E0,2.3865757E0,-3.752047E-1,1.1757584E0,4.9004135E0,2.819733E0,7.1240087E0,7.6230204E-1,2.7425091E0,-9.108696E-1,1.4746499E0,8.984809E-1,3.781022E0,-1.7348555E-1,1.2706442E0,6.627881E0,2.172439E0,-7.7993965E-1,1.4547281E0],"categories":[],"categories_nodes":[],"categories_segments":[],"categories_sizes":[],"default_left":[true,true,true,true,true,true,true,true,false,false,true,true,true,true,true,false,false,false,true,true,true,true,true,true,true,true,true,false,false,false,false,false,false,false,true,true,true,true,true,true,false,true,true,true,true,false,false,false,false,false,false,false,false,false,false,false,false,false,false,false,false,false,false,false,false],"id":11,"left_children":[1,3,5,7,9,11,13,15,-1,-1,17,19,21,23,25,-1,-1,-1,27,29,31,33,35,37,39,41,43,-1,-1,-1,-1,-1,-1,-1,45,47,49,51,53,55,-1,57,59,61,63,-1,-1,-1,-1,-1,-1,-1,-1,-1,-1,-1,-1,-1,-1,-1,-1,-1,-1,-1,-1],"loss_changes":[1.6865918E2,1.6845389E2,1.6275732E2,4.3098493E0,9.429309E1,6.0288147E1,1.4257434E2,2.8685153E-1,0E0,0E0,4.0382202E1,3.788438E1,6.2362427E1,1.2613519E2,1.4247101E2,0E0,0E0,0E0,3.3300903E1,1.6521463E1,3.7645264E0,3.278305E1,4.830298E1,9.806152E1,1.1870854E2,1.3401526E2,8.091318E1,0E0,0E0,0E0,0E0,0E0,0E0,0E0,6.755395E-1,1.7714521E1,2.8039398E0,1.1377539E2,1.2955013E1,4.813315E1,0E0,1.5000006E2,1.8879022E2,9.454474E1,1.2766962E1,0E0,0E0,0E0,0E0,0E0,0E0,0E0,0E0,0E0,0E0,0E0,0E0,0E0,0E0,0E0,0E0,0E0,0E0,0E0,0E0],"parents":[2147483647,0,0,1,1,2,2,3,3,4,4,5,5,6,6,7,7,10,10,11,11,12,12,13,13,14,14,18,18,19,19,20,20,21,21,22,22,23,23,24,24,25,25,26,26,34,34,35,35,36,36,37,37,38,38,39,39,41,41,42,42,43,43,44,44],"right_children":[2,4,6,8,10,12,14,16,-1,-1,18,20,22,24,26,-1,-1,-1,28,30,32,34,36,38,40,42,44,-1,-1,-1,-1,-1,-1,-1,46,48,50,52,54,56,-1,58,60,62,64,-1,-1,-1,-1,-1,-1,-1,-1,-1,-1,-1,-1,-1,-1,-1,-1,-1,-1,-1,-1],"split_conditions":[2.6999998E0,4.9050003E1,2.35E1,5.15E1,1.5615E2,8.76E1,6.15E-1,1.7735E2,-3.39267E-1,4.1586306E-2,7.485E1,5.09E1,5.16E1,1.3070001E2,1.7186E2,1.8586884E-1,1.6822816E-4,2.2915192E-1,5.6E1,1.5825E2,4.9E0,2.175E3,1.245E2,5.765E1,7.4675E1,4.5699997E1,7.65E-1,2.6776466E0,3.828209E-1,2.4977967E-1,-6.432175E-1,1.6697617E-1,1.0124298E0,2.0130813E0,1.795E2,6.05E0,4.8300003E1,1.557E2,9.85E1,4.7199997E1,2.2120028E0,3.6050003E1,6.35E-1,5.285E1,4.8699997E1,9.633294E-2,5.376847E-1,7.159727E-1,-1.1256142E-1,3.5272753E-1,1.4701241E0,8.459199E-1,2.1372027E0,2.2869062E-1,8.227528E-1,-2.732609E-1,4.42395E-1,2.6954427E-1,1.1343067E0,-5.2045666E-2,3.8119328E-1,1.9883643E0,6.517317E-1,-2.339819E-1,4.3641844E-1],"split_indices":[18,4,13,9,14,27,21,0,0,0,5,9,9,27,24,0,0,0,13,3,18,28,16,12,15,11,21,0,0,0,0,0,0,0,0,18,4,3,20,11,0,7,23,9,11,0,0,0,0,0,0,0,0,0,0,0,0,0,0,0,0,0,0,0,0],"split_type":[0,0,0,0,0,0,0,0,0,0,0,0,0,0,0,0,0,0,0,0,0,0,0,0,0,0,0,0,0,0,0,0,0,0,0,0,0,0,0,0,0,0,0,0,0,0,0,0,0,0,0,0,0,0,0,0,0,0,0,0,0,0,0,0,0],"sum_hessian":[6.58E2,1.7E1,6.41E2,5E0,1.2E1,3.8E1,6.03E2,3E0,2E0,2E0,1E1,1.2E1,2.6E1,8.5E1,5.18E2,2E0,1E0,1E0,9E0,6E0,6E0,1.2E1,1.4E1,4.3E1,4.2E1,4.87E2,3.1E1,8E0,1E0,4E0,2E0,1E0,5E0,1E1,2E0,8E0,6E0,2.8E1,1.5E1,4E1,2E0,7.3E1,4.14E2,2.1E1,1E1,1E0,1E0,3E0,5E0,1E0,5E0,1.6E1,1.2E1,1E1,5E0,1.1E1,2.9E1,3.9E1,3.4E1,1.33E2,2.81E2,9E0,1.2E1,3E0,7E0],"tree_param":{"num_deleted":"0","num_feature":"34","num_nodes":"65","size_leaf_vector":"0"}},{"base_weights":[1.1421901E0,1.0541401E0,3.332971E0,1.3516759E0,4.5409632E-1,5.131307E0,1.2782528E0,8.9637214E-1,2.0266805E0,3.9474673E0,2.7977216E-1,1.8766632E0,6.3692975E0,3.0291774E0,-1.9472218E-1,1.1906266E0,-5.0327396E-1,7.862633E-1,2.8663092E0,-1.9138006E0,5.6520095E0,-1.4370756E-1,1.3669958E0,2.0885696E0,5.1451874E-1,7.474092E0,3.1197815E0,9.5394593E-1,-1.5818768E0,8.130985E-1,3.4412763E0,-3.2666254E0,4.8682874E-1,2.3193984E0,-2.3034242E-1,5.9630694E0,2.2132359E0,2.2864113E0,6.392807E0,5.9517455E-1,-1.2558568E0,2.894891E0,3.9530987E-1,4.23378E-1,3.8774567E0,4.061432E-1,1.1837667E0,-3.6156082E-1,-1.8681284E0,6.433412E-1,4.424903E0,1.03606615E1,2.5770109E0,-5.9099746E0,-1.2062039E0,1.1942487E0,-1.9615669E0,3.2945044E0,7.4471474E-1,-3.1604753E0,6.382361E-1,4.070256E0,1.34394455E1,-3.6882764E-1,3.0662384E0,-1.406807E-1,2.047046E0,-2.2853012E0,5.793589E-1,2.1586199E0,6.838402E0,-7.5589824E-1,2.0573945E0],"categories":[],"categories_nodes":[],"categories_segments":[],"categories_sizes":[],"default_left":[true,true,true,true,true,true,true,true,true,true,true,true,true,false,true,true,true,true,true,false,true,true,true,false,false,false,true,true,true,true,true,true,true,true,true,true,true,false,false,true,true,true,true,false,false,false,false,false,false,false,false,false,false,false,false,false,false,false,false,false,false,false,false,false,false,false,false,false,false,false,false,false,false],"id":12,"left_children":[1,3,5,7,9,11,13,15,17,19,21,23,25,-1,27,29,31,33,35,-1,37,39,41,-1,-1,-1,43,45,47,49,51,53,55,57,59,61,63,-1,-1,65,67,69,71,-1,-1,-1,-1,-1,-1,-1,-1,-1,-1,-1,-1,-1,-1,-1,-1,-1,-1,-1,-1,-1,-1,-1,-1,-1,-1,-1,-1,-1,-1],"loss_changes":[1.2360651E2,1.12755615E2,8.581772E1,1.2849219E2,1.27999176E2,4.042679E1,3.4117733E1,1.05621506E2,1.7479962E2,1.10724594E2,9.366112E1,3.6862755E-1,8.99292E0,0E0,1.4256066E1,1.7648514E2,1.2471036E2,1.09635826E2,1.9106586E2,0E0,5.329239E0,1.2154428E2,8.3479774E1,0E0,0E0,0E0,6.530361E0,1.4870358E-1,7.2182846E-1,1.0874299E2,1.5270602E2,5.8228333E1,6.1232086E1,4.054007E1,1.1145429E2,1.8587152E2,1.88344E2,0E0,0E0,9.537265E1,1.127899E2,4.911534E1,7.043777E1,0E0,0E0,0E0,0E0,0E0,0E0,0E0,0E0,0E0,0E0,0E0,0E0,0E0,0E0,0E0,0E0,0E0,0E0,0E0,0E0,0E0,0E0,0E0,0E0,0E0,0E0,0E0,0E0,0E0,0E0],"parents":[2147483647,0,0,1,1,2,2,3,3,4,4,5,5,6,6,7,7,8,8,9,9,10,10,11,11,12,12,14,14,15,15,16,16,17,17,18,18,20,20,21,21,22,22,26,26,27,27,28,28,29,29,30,30,31,31,32,32,33,33,34,34,35,35,36,36,39,39,40,40,41,41,42,42],"right_children":[2,4,6,8,10,12,14,16,18,20,22,24,26,-1,28,30,32,34,36,-1,38,40,42,-1,-1,-1,44,46,48,50,52,54,56,58,60,62,64,-1,-1,66,68,70,72,-1,-1,-1,-1,-1,-1,-1,-1,-1,-1,-1,-1,-1,-1,-1,-1,-1,-1,-1,-1,-1,-1,-1,-1,-1,-1,-1,-1,-1,-1],"split_conditions":[6.24E1,7.85E1,7.58E1,5.035E1,1.175E2,2.65E-1,1.284E2,2.684E1,6.65E1,4.9E1,1.3415E2,1.9070001E2,1.9455E2,9.087533E-1,1.345E2,3.735E2,4.7550003E1,5.65E1,2.7465E2,-5.741402E-1,1.585E2,1.25E0,1.461E3,6.2657094E-1,1.5435563E-1,2.2422278E0,1.9965E2,5.74E1,1.951E2,1.5325E2,3.7495E2,1.6605E2,1.092E2,1.6335E2,3.955E1,2.014E2,1.5415E2,6.859234E-1,1.9178421E0,2.085E3,1.365E2,2.877E1,1.695E2,1.270134E-1,1.1632371E0,1.2184296E-1,3.5513002E-1,-1.0846825E-1,-5.604386E-1,1.9300236E-1,1.3274709E0,3.1081986E0,7.731033E-1,-1.7729925E0,-3.618612E-1,3.582746E-1,-5.884701E-1,9.8835135E-1,2.2341444E-1,-9.481426E-1,1.9147085E-1,1.221077E0,4.0318336E0,-1.106483E-1,9.1987157E-1,-4.2204212E-2,6.141138E-1,-6.855904E-1,1.7380767E-1,6.47586E-1,2.0515206E0,-2.2676948E-1,6.172184E-1],"split_indices":[7,17,15,4,3,23,5,29,17,11,25,1,1,0,19,2,9,17,2,0,14,26,28,0,0,0,1,12,0,25,2,14,5,14,12,27,0,0,0,28,16,29,20,0,0,0,0,0,0,0,0,0,0,0,0,0,0,0,0,0,0,0,0,0,0,0,0,0,0,0,0,0,0],"split_type":[0,0,0,0,0,0,0,0,0,0,0,0,0,0,0,0,0,0,0,0,0,0,0,0,0,0,0,0,0,0,0,0,0,0,0,0,0,0,0,0,0,0,0,0,0,0,0,0,0,0,0,0,0,0,0,0,0,0,0,0,0,0,0,0,0,0,0,0,0,0,0,0,0],"sum_hessian":[6.58E2,6.34E2,2.4E1,4.23E2,2.11E2,1.2E1,1.2E1,2.54E2,1.69E2,9E0,2.02E2,4E0,8E0,5E0,7E0,2.1E2,4.4E1,6.9E1,1E2,2E0,7E0,1.46E2,5.6E1,3E0,1E0,5E0,3E0,4E0,3E0,1.81E2,2.9E1,1.1E1,3.3E1,2.7E1,4.2E1,1.6E1,8.4E1,2E0,5E0,8.8E1,5.8E1,2.1E1,3.5E1,1E0,2E0,2E0,2E0,1E0,2E0,1.74E2,7E0,2E0,2.7E1,4E0,7E0,2.6E1,7E0,1.6E1,1.1E1,9E0,3.3E1,1.4E1,2E0,2.1E1,6.3E1,5.9E1,2.9E1,3.7E1,2.1E1,1.9E1,2E0,2.1E1,1.4E1],"tree_param":{"num_deleted":"0","num_feature":"34","num_nodes":"73","size_leaf_vector":"0"}},{"base_weights":[8.295242E-1,2.1416943E0,7.13586E-1,4.4600186E-1,2.6816442E0,1.2039145E0,4.0914497E-1,1.0032806E0,-2.546027E-1,4.3975677E0,1.963084E0,2.9662104E0,9.474905E-1,2.1516688E0,2.6275897E-1,2.831726E-1,1.1961212E0,5.8895874E-1,-7.09819E-1,1.72111E0,6.3410974E0,5.5986404E-1,2.746008E0,8.4558344E-1,7.5847607E0,-8.5727113E-1,1.4206835E0,3.5631168E0,-8.8639414E-1,-9.647301E-1,5.481E-1,1.7257309E-1,7.10865E-1,2.1045685E-2,-8.9779663E-1,6.0990334E-1,2.6290157E0,2.3940837E0,7.7160835E0,1.1218119E0,-4.5122528E-1,4.0298576E0,1.1875576E0,-3.6604413E-1,1.9803398E0,9.738801E0,3.041331E-2,3.0659384E-1,-1.7075177E0,4.573783E0,1.2271862E0,1.1400721E0,7.055175E0,3.4537825E-1,-2.187242E0,8.796718E-1,-2.3469124E0,1.0660609E0,-3.5797317E-2,7.9669446E-1,2.4765015E-2,1.2995453E0,-6.116104E-2,-7.094078E-1,-2.093277E-1,4.432596E0,1.6126022E0,4.1680336E-1,1.4583375E0,1.001037E0,-1.6721178E0,-1.14123024E-1,2.4584563E0,-3.6499023E-2,8.211899E-2,-6.534459E-1,2.4955876E0,-4.4535384E0,-7.983357E-1,8.482277E0,1.2058233E0,2.3072288E0,7.6012987E-1,4.633114E0,4.6289253E-1,7.782153E0,9.8316383E-1,-1.7279308E-1,6.4766216E-1,-7.4764127E-1,-2.8977623E0,2.5333138E0,-1.0730383E0,-3.0567718E0,1.2334322E0,1.4827732E0,-1.1834602E0,-1.5658262E0,4.0169472E-1],"categories":[],"categories_nodes":[],"categories_segments":[],"categories_sizes":[],"default_left":[true,true,true,true,true,true,true,true,true,true,true,true,true,true,true,false,false,true,true,true,true,true,true,true,true,true,true,true,true,true,true,false,false,false,false,true,false,false,false,true,true,true,true,true,true,false,true,true,true,true,true,true,true,true,true,true,true,true,true,false,false,false,false,false,false,false,false,false,false,false,false,false,false,false,false,false,false,false,false,false,false,false,false,false,false,false,false,false,false,false,false,false,false,false,false,false,false,false,false],"id":13,"left_children":[1,3,5,7,9,11,13,15,17,19,21,23,25,27,29,-1,-1,31,33,35,37,39,41,43,45,47,49,51,53,55,57,-1,-1,-1,-1,59,-1,-1,-1,61,63,65,67,69,71,-1,73,75,77,79,81,83,85,87,89,91,93,95,97,-1,-1,-1,-1,-1,-1,-1,-1,-1,-1,-1,-1,-1,-1,-1,-1,-1,-1,-1,-1,-1,-1,-1,-1,-1,-1,-1,-1,-1,-1,-1,-1,-1,-1,-1,-1,-1,-1,-1,-1],"loss_changes":[9.872589E1,4.7330215E1,9.011801E1,5.721487E0,4.068698E1,1.02029144E2,9.534512E1,7.722206E-1,3.1060748E0,4.63058E1,3.1421043E1,2.7761896E2,1.7543402E2,1.275123E2,1.2241682E2,0E0,0E0,2.9603839E-2,7.0582557E-1,4.4497776E0,1.4089584E1,7.324343E0,3.3229813E1,2.9597837E1,1.4615509E2,4.307512E1,9.322592E1,1.6118486E2,1.6778913E1,1.7031828E2,8.562754E1,0E0,0E0,0E0,0E0,4.174645E-1,0E0,0E0,0E0,1.7615128E0,1.6376996E-1,2.587204E0,1.479208E0,2.1314447E1,1.1295937E1,0E0,1.3376505E-2,4.1559635E1,5.8860405E1,1.0824472E2,7.5930084E1,2.8605785E1,2.7662628E1,1.0517206E0,2.9478397E0,9.6361755E1,1.0034888E2,1.4236525E2,9.032529E1,0E0,0E0,0E0,0E0,0E0,0E0,0E0,0E0,0E0,0E0,0E0,0E0,0E0,0E0,0E0,0E0,0E0,0E0,0E0,0E0,0E0,0E0,0E0,0E0,0E0,0E0,0E0,0E0,0E0,0E0,0E0,0E0,0E0,0E0,0E0,0E0,0E0,0E0,0E0,0E0],"parents":[2147483647,0,0,1,1,2,2,3,3,4,4,5,5,6,6,7,7,8,8,9,9,10,10,11,11,12,12,13,13,14,14,17,17,18,18,19,19,20,20,21,21,22,22,23,23,24,24,25,25,26,26,27,27,28,28,29,29,30,30,35,35,39,39,40,40,41,41,42,42,43,43,44,44,46,46,47,47,48,48,49,49,50,50,51,51,52,52,53,53,54,54,55,55,56,56,57,57,58,58],"right_children":[2,4,6,8,10,12,14,16,18,20,22,24,26,28,30,-1,-1,32,34,36,38,40,42,44,46,48,50,52,54,56,58,-1,-1,-1,-1,60,-1,-1,-1,62,64,66,68,70,72,-1,74,76,78,80,82,84,86,88,90,92,94,96,98,-1,-1,-1,-1,-1,-1,-1,-1,-1,-1,-1,-1,-1,-1,-1,-1,-1,-1,-1,-1,-1,-1,-1,-1,-1,-1,-1,-1,-1,-1,-1,-1,-1,-1,-1,-1,-1,-1,-1,-1],"split_conditions":[5.85E-1,6.95E1,4.15E1,5.75E1,5E-1,2.6965002E2,5.35E1,1.299E2,1.0805E2,1.659E3,4.1499996E0,2.647E2,3.0735E2,1.65E2,7.65E1,8.495179E-2,3.5883638E-1,1.604E2,1.505E2,1.636E2,1.31E2,1.5715E2,6.07E1,9.475E1,1.105E2,1.02850006E2,3.1145E2,1.5935E2,1.625E2,2.2494999E1,1.1500001E0,5.1771928E-2,2.1325952E-1,6.313706E-3,-2.69339E-1,1.565E2,7.8870475E-1,7.182251E-1,2.314825E0,1.829E2,8.615E1,1.495E2,4.15E1,4.1E1,8.88E1,2.9216404E0,1.408E2,9.1899994E1,1.2875E2,5.095E1,1.008E2,3.86E1,1.7705E2,5.125E1,4.625E1,6.55E-1,1.8275E2,1.795E2,6.15E-1,2.3900835E-1,7.4295048E-3,3.898636E-1,-1.8348314E-2,-2.1282235E-1,-6.2798314E-2,1.3297789E0,4.8378068E-1,1.2504101E-1,4.3750128E-1,3.0031112E-1,-5.016354E-1,-3.4236908E-2,7.375369E-1,-1.0949708E-2,2.4635697E-2,-1.9603378E-1,7.486763E-1,-1.3360616E0,-2.3950072E-1,2.5446832E0,3.61747E-1,6.9216865E-1,2.2803897E-1,1.3899342E0,1.3886777E-1,2.334646E0,2.9494917E-1,-5.1837925E-2,1.9429865E-1,-2.2429238E-1,-8.6932874E-1,7.5999415E-1,-3.219115E-1,-9.170316E-1,3.7002966E-1,4.4483197E-1,-3.5503808E-1,-4.6974787E-1,1.2050842E-1],"split_indices":[21,20,13,20,32,2,20,1,22,28,18,2,2,3,20,0,0,0,0,0,0,24,15,5,20,27,2,0,14,29,26,0,0,0,0,0,0,0,0,1,5,20,13,6,25,0,0,27,27,11,22,25,0,9,6,23,3,20,23,0,0,0,0,0,0,0,0,0,0,0,0,0,0,0,0,0,0,0,0,0,0,0,0,0,0,0,0,0,0,0,0,0,0,0,0,0,0,0,0],"split_type":[0,0,0,0,0,0,0,0,0,0,0,0,0,0,0,0,0,0,0,0,0,0,0,0,0,0,0,0,0,0,0,0,0,0,0,0,0,0,0,0,0,0,0,0,0,0,0,0,0,0,0,0,0,0,0,0,0,0,0,0,0,0,0,0,0,0,0,0,0,0,0,0,0,0,0,0,0,0,0,0,0,0,0,0,0,0,0,0,0,0,0,0,0,0,0,0,0,0,0],"sum_hessian":[6.58E2,5.2E1,6.06E2,1.3E1,3.9E1,2.31E2,3.75E2,7E0,6E0,1E1,2.9E1,2.8E1,2.03E2,2.8E1,3.47E2,2E0,5E0,2E0,4E0,5E0,5E0,1.1E1,1.8E1,2E1,8E0,4.2E1,1.61E2,1.9E1,9E0,6.5E1,2.82E2,1E0,1E0,1E0,3E0,3E0,2E0,2E0,3E0,7E0,4E0,9E0,9E0,1E1,1E1,6E0,2E0,1.8E1,2.4E1,8E0,1.53E2,1.2E1,7E0,5E0,4E0,2.8E1,3.7E1,1.49E2,1.33E2,2E0,1E0,6E0,1E0,1E0,3E0,7E0,2E0,3E0,6E0,5E0,5E0,2E0,8E0,1E0,1E0,1.3E1,5E0,5E0,1.9E1,3E0,5E0,4.5E1,1.08E2,1E0,1.1E1,6E0,1E0,2E0,3E0,2E0,2E0,1.5E1,1.3E1,3.1E1,6E0,1.26E2,2.3E1,2.9E1,1.04E2],"tree_param":{"num_deleted":"0","num_feature":"34","num_nodes":"99","size_leaf_vector":"0"}},{"base_weights":[6.050457E-1,1.7341666E0,5.013982E-1,2.5784707E0,-1.1919286E0,-1.9697446E0,5.632692E-1,7.262329E0,2.045623E0,-3.1685994E0,-5.4447937E-1,-2.999347E0,7.4549995E-2,-7.5742507E-1,6.840652E-1,2.4082847E0,-1.820404E0,-1.0376837E0,2.5490266E-1,-4.169517E0,-9.952736E-1,1.1977106E0,-7.86458E-1,8.7498873E-1,-1.9696898E0,4.3179375E-1,1.2062218E0,2.980543E0,2.9675463E-1,-3.383026E-1,-1.8574244E0,-1.6717148E-1,4.0221405E-1,2.098465E-2,-1.6797739E0,1.5010147E0,2.955513E-1,2.556872E0,-8.034821E-2,-3.966461E0,-7.099967E-1,3.501754E-1,4.050645E0,5.832349E0,1.0647285E0,3.410098E0,2.3665924E-1,1.2858711E0,-7.517128E-1,-5.424614E-1,-2.1376291E-2,4.7111002E-1,9.776306E-2,-2.9281807E-1,3.2429504E-1,1.2318993E0,3.5738697E0,-9.0729046E-1,7.566376E-1,-5.463279E0,-1.0776237E0,1.7693253E-1,-3.228785E0,-8.400763E-2,7.613432E-1,5.818226E0,1.8264511E0,7.9133277E0,1.8072535E0,3.7259126E0,8.7745833E-1],"categories":[],"categories_nodes":[],"categories_segments":[],"categories_sizes":[],"default_left":[true,true,true,true,true,true,true,false,true,false,true,true,true,true,true,true,false,true,true,false,true,true,false,true,true,true,true,true,true,true,false,false,true,true,false,false,false,true,true,true,true,true,true,true,true,false,false,false,false,false,false,false,false,false,false,false,false,false,false,false,false,false,false,false,false,false,false,false,false,false,false],"id":14,"left_children":[1,3,5,7,9,11,13,-1,15,-1,17,19,21,23,25,27,-1,29,31,-1,33,35,-1,37,39,41,43,45,47,49,-1,-1,51,53,-1,-1,-1,55,57,59,61,63,65,67,69,-1,-1,-1,-1,-1,-1,-1,-1,-1,-1,-1,-1,-1,-1,-1,-1,-1,-1,-1,-1,-1,-1,-1,-1,-1,-1],"loss_changes":[7.625362E1,1.3895161E2,9.360916E1,9.246268E1,1.4912085E1,3.1795765E1,9.4803085E1,0E0,6.046646E1,0E0,4.6013546E0,1.9301254E1,6.7442513E0,1.0066935E2,7.087422E1,4.3824112E1,0E0,3.384807E0,3.7812033E-1,0E0,3.5133953E0,3.7725878E-1,0E0,3.5554268E1,7.012807E1,1.06980385E2,1.08993774E2,3.337378E1,1.0300114E1,3.1192064E-1,0E0,0E0,3.78446E-2,3.8049832E-1,0E0,0E0,0E0,6.377308E0,1.1068574E1,4.1677338E1,4.301703E1,6.43319E1,2.0824844E1,2.75793E1,8.244862E1,0E0,0E0,0E0,0E0,0E0,0E0,0E0,0E0,0E0,0E0,0E0,0E0,0E0,0E0,0E0,0E0,0E0,0E0,0E0,0E0,0E0,0E0,0E0,0E0,0E0,0E0],"parents":[2147483647,0,0,1,1,2,2,3,3,4,4,5,5,6,6,8,8,10,10,11,11,12,12,13,13,14,14,15,15,17,17,18,18,20,20,21,21,23,23,24,24,25,25,26,26,27,27,28,28,29,29,32,32,33,33,37,37,38,38,39,39,40,40,41,41,42,42,43,43,44,44],"right_children":[2,4,6,8,10,12,14,-1,16,-1,18,20,22,24,26,28,-1,30,32,-1,34,36,-1,38,40,42,44,46,48,50,-1,-1,52,54,-1,-1,-1,56,58,60,62,64,66,68,70,-1,-1,-1,-1,-1,-1,-1,-1,-1,-1,-1,-1,-1,-1,-1,-1,-1,-1,-1,-1,-1,-1,-1,-1,-1,-1],"split_conditions":[4.515E1,6.3500004E0,5.345E1,1.2485E2,6.6499996E0,2.04E3,4.705E1,2.1786988E0,1.18600006E2,-9.505798E-1,1.971E2,1.285E2,5.21E1,1.05E0,5.175E1,5.625E1,-5.4612124E-1,4.2E1,4.835E1,-1.2508552E0,5.505E1,1.6704999E2,-2.3593742E-1,8.65E1,5.3300003E1,2.3415E2,1.1455E2,2.7255001E1,5.05E1,7.35E1,-5.572273E-1,-5.0151445E-2,2.2125E2,1.645E2,-5.039322E-1,4.5030442E-1,8.8665396E-2,2.205E3,9.93E1,5.55E0,1.49E2,4.715E1,5.355E1,5.335E1,5.195E1,1.0230294E0,7.0997775E-2,3.8576135E-1,-2.2551385E-1,-1.6273843E-1,-6.4128875E-3,1.4133301E-1,2.932892E-2,-8.784542E-2,9.728852E-2,3.6956978E-1,1.072161E0,-2.7218714E-1,2.2699128E-1,-1.6389837E0,-3.2328713E-1,5.307976E-2,-9.6863556E-1,-2.520229E-2,2.2840296E-1,1.7454678E0,5.4793537E-1,2.3739984E0,5.4217607E-1,1.1177738E0,2.632375E-1],"split_indices":[9,18,8,0,18,28,9,0,22,0,0,20,5,26,11,10,0,9,4,0,9,0,0,8,11,3,0,29,13,0,0,0,0,0,0,0,0,28,22,18,19,6,6,9,11,0,0,0,0,0,0,0,0,0,0,0,0,0,0,0,0,0,0,0,0,0,0,0,0,0,0],"split_type":[0,0,0,0,0,0,0,0,0,0,0,0,0,0,0,0,0,0,0,0,0,0,0,0,0,0,0,0,0,0,0,0,0,0,0,0,0,0,0,0,0,0,0,0,0,0,0,0,0,0,0,0,0,0,0,0,0,0,0,0,0,0,0,0,0,0,0,0,0,0,0],"sum_hessian":[6.58E2,5.4E1,6.04E2,4.2E1,1.2E1,1.4E1,5.9E2,3E0,3.9E1,2E0,1E1,9E0,5E0,4.9E1,5.41E2,3.6E1,3E0,6E0,4E0,5E0,4E0,2E0,3E0,2.1E1,2.8E1,3.66E2,1.75E2,2.8E1,8E0,4E0,2E0,1E0,3E0,2E0,2E0,1E0,1E0,7E0,1.4E1,1E1,1.8E1,3.59E2,7E0,4E0,1.71E2,2.4E1,4E0,4E0,4E0,2E0,2E0,2E0,1E0,1E0,1E0,4E0,3E0,7E0,7E0,6E0,4E0,1.4E1,4E0,1.75E2,1.84E2,3E0,4E0,2E0,2E0,1E1,1.61E2],"tree_param":{"num_deleted":"0","num_feature":"34","num_nodes":"71","size_leaf_vector":"0"}},{"base_weights":[4.3142402E-1,1.324272E0,3.281384E-1,1.0796375E0,8.857391E0,5.4178566E-1,-4.505656E-1,-7.836974E-1,1.7801218E0,4.0246958E-1,2.0532262E0,1.8352236E0,-6.8115455E-1,1.8781163E-1,-2.4759717E0,2.6094213E0,6.43735E-1,-3.2430638E-2,7.9305744E-1,4.366525E0,7.286336E-1,-1.1427625E-1,3.2440486E0,-1.7610157E0,-7.54266E-2,-1.2109547E0,1.2134099E0,1.06751874E-1,3.9938626E0,2.537164E0,-2.2487354E-1,2.2785723E-1,-2.184247E0,3.1319714E0,5.2415067E-1,2.2875257E0,6.7572703E0,-4.223205E-1,7.164461E0,1.2633705E0,-1.9130465E0,3.822162E0,1.1991768E0,-4.9768977E0,-1.0867882E0,-3.3641237E-1,3.6978538E0,-1.3082695E-1,-2.2474735E0,-5.390803E-2,1.6448339E0,-5.2112293E-1,1.3358135E0,7.3190966E0,2.5210032E0,2.8165348E0,4.304695E-1,5.42888E-1,-2.0225265E0,2.80452E0,4.57063E-2,-1.126816E0,-6.660983E0,4.617368E0,3.0831316E-1,1.7610079E0,2.3785713E-1,-1.9015503E-1,3.0225995E0,3.7477367E0,-9.9793243E-1,8.127597E0,2.1375275E0,-5.3326206E0,-1.4212799E0,-1.5860147E0,2.3256195E0,4.59568E0,-4.7060636E-1,9.166603E-1,4.163987E0],"categories":[],"categories_nodes":[],"categories_segments":[],"categories_sizes":[],"default_left":[true,true,true,true,false,true,true,true,true,true,true,true,true,true,false,true,true,true,true,true,true,true,true,true,true,true,true,true,true,true,true,true,true,true,true,true,false,true,true,false,false,false,false,true,true,true,true,false,false,false,false,false,false,false,false,false,false,false,false,false,false,false,false,false,false,false,false,false,false,false,false,false,false,false,false,false,false,false,false,false,false],"id":15,"left_children":[1,3,5,7,-1,9,11,13,15,17,19,21,23,25,-1,27,29,31,33,35,37,39,41,43,45,47,49,51,53,55,57,59,61,63,65,67,-1,69,71,-1,-1,-1,-1,73,75,77,79,-1,-1,-1,-1,-1,-1,-1,-1,-1,-1,-1,-1,-1,-1,-1,-1,-1,-1,-1,-1,-1,-1,-1,-1,-1,-1,-1,-1,-1,-1,-1,-1,-1,-1],"loss_changes":[6.0337357E1,1.1575177E2,9.873395E1,8.884593E1,0E0,9.708775E1,6.871601E1,3.1702152E1,4.4498077E1,7.2558815E1,1.1632138E2,3.3328762E1,7.639711E1,2.0118826E1,0E0,9.658801E1,3.6752808E1,1.1419632E2,1.3987209E2,5.4127594E1,1.956166E2,1.7285309E1,3.6917267E0,8.5657074E1,7.608671E1,6.4234047E0,4.46268E0,9.184788E0,6.970538E1,2.9074135E0,2.3180706E1,8.529198E1,9.663877E1,9.504422E1,7.1464294E1,1.6966267E1,0E0,5.8947685E1,1.993515E0,0E0,0E0,0E0,0E0,1.2745667E0,6.5016785E1,4.9816475E1,2.6650772E0,0E0,0E0,0E0,0E0,0E0,0E0,0E0,0E0,0E0,0E0,0E0,0E0,0E0,0E0,0E0,0E0,0E0,0E0,0E0,0E0,0E0,0E0,0E0,0E0,0E0,0E0,0E0,0E0,0E0,0E0,0E0,0E0,0E0,0E0],"parents":[2147483647,0,0,1,1,2,2,3,3,5,5,6,6,7,7,8,8,9,9,10,10,11,11,12,12,13,13,15,15,16,16,17,17,18,18,19,19,20,20,21,21,22,22,23,23,24,24,25,25,26,26,27,27,28,28,29,29,30,30,31,31,32,32,33,33,34,34,35,35,37,37,38,38,43,43,44,44,45,45,46,46],"right_children":[2,4,6,8,-1,10,12,14,16,18,20,22,24,26,-1,28,30,32,34,36,38,40,42,44,46,48,50,52,54,56,58,60,62,64,66,68,-1,70,72,-1,-1,-1,-1,74,76,78,80,-1,-1,-1,-1,-1,-1,-1,-1,-1,-1,-1,-1,-1,-1,-1,-1,-1,-1,-1,-1,-1,-1,-1,-1,-1,-1,-1,-1,-1,-1,-1,-1,-1,-1],"split_conditions":[8.22E2,6.35E1,1.435E2,9.7899994E1,2.6572175E0,1.375E2,1.229E2,5.55E1,9.2E1,3.1875E2,3.925E1,1.5805E2,4.29E1,4.45E0,-7.4279153E-1,4.65E-1,5E-1,3.121E2,9.5E-1,3.6050003E1,1.521E2,3.35E1,1.2335E2,1.105E2,1.06E0,1.66E2,4.05E1,5.55E0,4.16E1,5.1199997E1,1.032E2,3.025E1,1.295E2,1.2655E2,3.329E2,1.5255E3,2.0271811E0,1.5745E2,4.835E1,3.7901118E-1,-5.73914E-1,1.1466486E0,3.5975304E-1,2.1054999E2,8.78E1,4.415E1,4.89E1,-3.9248087E-2,-6.742421E-1,-1.617241E-2,4.934502E-1,-1.5633689E-1,4.0074408E-1,2.195729E0,7.56301E-1,8.4496045E-1,1.2914085E-1,1.628664E-1,-6.06758E-1,8.41356E-1,1.371189E-2,-3.3804482E-1,-1.998295E0,1.3852105E0,9.249395E-2,5.283024E-1,7.1357146E-2,-5.704651E-2,9.067799E-1,1.1243211E0,-2.9937974E-1,2.4382792E0,6.4125824E-1,-1.5997863E0,-4.26384E-1,-4.7580445E-1,6.9768584E-1,1.3787041E0,-1.4118192E-1,2.749981E-1,1.2491962E0],"split_indices":[28,13,19,22,0,19,1,13,20,2,7,14,12,18,0,23,23,2,26,7,25,7,3,16,21,0,19,18,7,4,8,6,19,27,2,28,0,14,4,0,0,0,0,0,8,9,4,0,0,0,0,0,0,0,0,0,0,0,0,0,0,0,0,0,0,0,0,0,0,0,0,0,0,0,0,0,0,0,0,0,0],"split_type":[0,0,0,0,0,0,0,0,0,0,0,0,0,0,0,0,0,0,0,0,0,0,0,0,0,0,0,0,0,0,0,0,0,0,0,0,0,0,0,0,0,0,0,0,0,0,0,0,0,0,0,0,0,0,0,0,0,0,0,0,0,0,0,0,0,0,0,0,0,0,0,0,0,0,0,0,0,0,0,0,0],"sum_hessian":[6.58E2,6.7E1,5.91E2,6.6E1,1E0,4.64E2,1.27E2,1.8E1,4.8E1,4.26E2,3.8E1,1.1E1,1.16E2,1.2E1,6E0,2.7E1,2.1E1,2.02E2,2.24E2,1.3E1,2.5E1,5E0,6E0,4.1E1,7.5E1,5E0,7E0,1E1,1.7E1,6E0,1.5E1,1.81E2,2.1E1,2.2E1,2.02E2,8E0,5E0,2.2E1,3E0,3E0,2E0,4E0,2E0,6E0,3.5E1,7.1E1,4E0,3E0,2E0,2E0,5E0,7E0,3E0,4E0,1.3E1,5E0,1E0,1.1E1,4E0,1.1E1,1.7E2,1.8E1,3E0,1.4E1,8E0,3.7E1,1.65E2,2E0,6E0,2E0,2E1,2E0,1E0,5E0,1E0,3.1E1,4E0,1E0,7E1,1E0,3E0],"tree_param":{"num_deleted":"0","num_feature":"34","num_nodes":"81","size_leaf_vector":"0"}},{"base_weights":[3.2483658E-1,1.6558403E0,2.6093984E-1,-1.438097E0,2.0528738E0,9.705743E-1,1.3933073E-1,-1.2548828E-1,-1.8338038E0,5.254105E-1,2.7874162E0,2.5452948E0,7.0255005E-1,5.1366687E-2,1.4443448E0,-3.9096832E-1,1.9977207E0,3.3095322E0,7.680084E-1,8.939315E-1,5.00869E0,-8.1224537E-1,1.0646143E0,8.866197E-1,-9.6036084E-2,2.1564977E0,-4.097716E-2,-6.807922E-1,2.223943E-1,4.7574234E-1,3.4909205E0,3.9426167E-2,1.2405878E0,-1.8233585E-1,1.4624544E0,5.8069344E0,9.07856E-1,-2.736752E-2,-3.160037E0,1.4709437E0,-2.7170324E-1,2.1269448E0,3.419142E-1,1.6431043E0,-1.8466361E-1,5.006199E-1,3.6326675E0,1.1810265E0,-1.0825549E0,-8.021431E-1,-9.76944E-2,2.185281E0,4.033785E0,8.4251404E-2,-2.5112152E-2,8.951696E-2,-4.9894714E-1,-1.02622986E-1,1.7959945E0,2.9736677E-1,-1.9620895E0,1.6552455E0,-1.9682007E0,-1.581701E0,6.724655E-1,-1.9932575E0,2.8446379E0,5.376772E-1,-3.1652832E0,5.7154304E-1,7.881958E0,-1.015028E0,1.2884283E-2,-2.0755386E-1,1.5335739E0,5.421032E0,1.5808313E0,1.9057032E0,3.4226227E-1],"categories":[],"categories_nodes":[],"categories_segments":[],"categories_sizes":[],"default_left":[true,true,true,true,true,true,true,false,false,true,true,true,true,true,true,true,false,true,true,true,true,true,true,true,true,true,true,true,false,false,true,true,false,true,true,false,false,true,false,true,true,true,true,true,true,true,true,true,false,false,false,false,false,false,false,false,false,false,false,false,false,false,false,false,false,false,false,false,false,false,false,false,false,false,false,false,false,false,false],"id":16,"left_children":[1,3,5,7,9,11,13,-1,-1,15,17,19,21,23,25,27,-1,29,31,33,35,37,39,41,43,45,47,49,-1,-1,51,53,-1,55,57,-1,-1,59,-1,61,63,65,67,69,71,73,75,77,-1,-1,-1,-1,-1,-1,-1,-1,-1,-1,-1,-1,-1,-1,-1,-1,-1,-1,-1,-1,-1,-1,-1,-1,-1,-1,-1,-1,-1,-1,-1],"loss_changes":[5.561377E1,3.9804153E1,5.4232525E1,1.8475132E0,2.8829086E1,3.7041626E1,6.1799946E1,0E0,0E0,1.4272985E1,1.6436829E1,4.840606E1,4.474099E1,6.238316E1,3.6052773E1,1.3957745E0,0E0,5.5354614E0,1.6726534E0,5.773602E0,1.1095482E1,2.939719E1,3.5693687E1,5.0619267E1,6.6735916E1,5.4401627E1,1.6552269E1,2.7543235E-1,0E0,0E0,3.9924622E-1,1.0794571E-2,0E0,3.8895088E-1,3.3164072E0,0E0,0E0,8.7509775E0,0E0,3.4949898E1,2.0853384E1,7.3682045E1,3.87772E1,1.3588673E2,6.743218E1,9.096431E0,3.546344E1,2.9947462E0,0E0,0E0,0E0,0E0,0E0,0E0,0E0,0E0,0E0,0E0,0E0,0E0,0E0,0E0,0E0,0E0,0E0,0E0,0E0,0E0,0E0,0E0,0E0,0E0,0E0,0E0,0E0,0E0,0E0,0E0,0E0],"parents":[2147483647,0,0,1,1,2,2,3,3,4,4,5,5,6,6,9,9,10,10,11,11,12,12,13,13,14,14,15,15,17,17,18,18,19,19,20,20,21,21,22,22,23,23,24,24,25,25,26,26,27,27,30,30,31,31,33,33,34,34,37,37,39,39,40,40,41,41,42,42,43,43,44,44,45,45,46,46,47,47],"right_children":[2,4,6,8,10,12,14,-1,-1,16,18,20,22,24,26,28,-1,30,32,34,36,38,40,42,44,46,48,50,-1,-1,52,54,-1,56,58,-1,-1,60,-1,62,64,66,68,70,72,74,76,78,-1,-1,-1,-1,-1,-1,-1,-1,-1,-1,-1,-1,-1,-1,-1,-1,-1,-1,-1,-1,-1,-1,-1,-1,-1,-1,-1,-1,-1,-1,-1],"split_conditions":[2.25E1,4.9E1,6.15E-1,1.6204999E2,2.202E1,1.3615E2,1.7186E2,-3.7646487E-2,-5.5014116E-1,2.4345E3,6.035E1,1.5745E2,2.959E2,4.5699997E1,1.1500001E0,4.795E1,5.9931624E-1,6.55E1,1.235E2,1.255E2,4.965E1,6.9E-1,1.6868E2,8.4E1,1.9575E1,1.459E2,4.995E1,5.355E1,6.6718295E-2,1.4272271E-1,1.53E2,1.801E2,3.7217635E-1,1.1245E2,6.15E1,1.7420803E0,2.723568E-1,2.929E2,-9.4801116E-1,2.107E2,5E-1,8.675E1,2.01E2,1.155E2,6.55E1,2.22E3,1.655E2,1.7735E2,-3.247665E-1,-2.4064294E-1,-2.9308321E-2,6.5558434E-1,1.2101355E0,2.5275422E-2,-7.5336457E-3,2.6855089E-2,-1.4968415E-1,-3.0786896E-2,5.387984E-1,8.921003E-2,-5.8862686E-1,4.965737E-1,-5.9046024E-1,-4.7451034E-1,2.0173965E-1,-5.979773E-1,8.533914E-1,1.6130318E-1,-9.49585E-1,1.7146292E-1,2.3645875E0,-3.0450842E-1,3.865285E-3,-6.226616E-2,4.600722E-1,1.6263096E0,4.742494E-1,5.71711E-1,1.0267869E-1],"split_indices":[13,20,21,0,29,0,24,0,0,28,7,14,2,11,26,7,0,19,16,1,7,23,24,20,29,1,12,6,0,0,1,0,0,0,17,0,0,2,0,0,32,22,19,25,17,28,0,0,0,0,0,0,0,0,0,0,0,0,0,0,0,0,0,0,0,0,0,0,0,0,0,0,0,0,0,0,0,0,0],"split_type":[0,0,0,0,0,0,0,0,0,0,0,0,0,0,0,0,0,0,0,0,0,0,0,0,0,0,0,0,0,0,0,0,0,0,0,0,0,0,0,0,0,0,0,0,0,0,0,0,0,0,0,0,0,0,0,0,0,0,0,0,0,0,0,0,0,0,0,0,0,0,0,0,0,0,0,0,0,0,0],"sum_hessian":[6.58E2,2.9E1,6.29E2,3E0,2.6E1,9.1E1,5.38E2,1E0,2E0,9E0,1.7E1,1.2E1,7.9E1,5.05E2,3.3E1,6E0,3E0,1.3E1,4E0,8E0,4E0,1.5E1,6.4E1,7.5E1,4.3E2,2.2E1,1.1E1,4E0,2E0,1E0,1.2E1,2E0,2E0,3E0,5E0,3E0,1E0,1.2E1,3E0,4.9E1,1.5E1,2.2E1,5.3E1,2E1,4.1E2,1.1E1,1.1E1,5E0,6E0,3E0,1E0,5E0,7E0,1E0,1E0,2E0,1E0,1E0,4E0,1.1E1,1E0,4.7E1,2E0,6E0,9E0,3E0,1.9E1,5.1E1,2E0,1.8E1,2E0,7.8E1,3.32E2,7E0,4E0,5E0,6E0,2E0,3E0],"tree_param":{"num_deleted":"0","num_feature":"34","num_nodes":"79","size_leaf_vector":"0"}},{"base_weights":[2.3852745E-1,1.6597752E-1,1.0822164E0,4.331193E-1,-1.1893263E-1,5.1893463E0,7.2485435E-1,-2.5589547E-1,8.0072176E-1,5.85422E-1,-5.657937E-1,1.4070973E0,-4.2642915E-1,5.1866823E-1,-1.1298063E0,1.2063369E0,-7.180601E-2,-3.015998E-1,1.4324528E0,-9.0867555E-1,7.4843746E-1,1.7596394E0,-2.469841E0,-9.996507E-1,1.9730644E0,7.129971E-2,1.6197375E0,-2.6026983E0,-2.029079E-1,5.772732E-1,2.6119623E0,1.6244919E0,-4.0372515E-1,9.977745E-2,-2.4533648E0,2.4739332E0,1.0647851E-1,1.2247804E-1,-1.4584644E0,-2.3503594E-1,1.6453154E0,1.0476857E0,3.8475385E0,-1.6151863E0,2.249309E-2,2.2978313E0,4.9938202E-1,7.2658986E-1,-7.1861345E-1,-6.3167876E-1,2.3610716E0,-1.5374949E0,-4.831924E0,6.7678756E-1,-2.2938862E0,1.4943537E0,2.0672398E-2,5.42279E0,1.0680184E0,-1.2025566E0,2.0274525E0,-1.0385579E0,8.87189E-1,-1.0333837E0,6.805036E-1,6.9858044E-1,-3.453718E0,7.3906326E-1,4.271041E0,9.898796E-1,-1.7703103E0,-5.264605E-1,1.574935E0,-2.4879172E0,-7.4657553E-1,1.3499734E0,-1.0704229E0,3.1279898E-1,2.3387628E0,-1.7925613E-1,2.1873205E0,-8.9300346E-1,-2.1587684E0,3.535286E-1,-5.3673047E-1],"categories":[],"categories_nodes":[],"categories_segments":[],"categories_sizes":[],"default_left":[true,true,true,true,true,false,true,true,true,true,true,true,true,true,true,true,true,true,true,true,true,true,false,true,true,true,true,true,true,true,true,true,true,true,true,true,true,true,true,true,true,true,false,true,true,false,false,false,false,false,false,false,false,false,false,false,false,false,false,false,false,false,false,false,false,false,false,false,false,false,false,false,false,false,false,false,false,false,false,false,false,false,false,false,false],"id":17,"left_children":[1,3,5,7,9,-1,11,13,15,17,19,21,23,25,27,29,31,33,35,37,39,41,-1,43,45,47,49,51,53,55,57,59,61,63,65,67,69,71,73,75,77,79,-1,81,83,-1,-1,-1,-1,-1,-1,-1,-1,-1,-1,-1,-1,-1,-1,-1,-1,-1,-1,-1,-1,-1,-1,-1,-1,-1,-1,-1,-1,-1,-1,-1,-1,-1,-1,-1,-1,-1,-1,-1,-1],"loss_changes":[4.0157475E1,4.6327244E1,7.256055E1,7.973593E1,9.3182076E1,0E0,3.9087334E1,7.504495E1,7.263826E1,8.683553E1,8.224339E1,4.671632E1,2.8105762E1,2.8946953E1,7.0463394E1,1.2228412E2,3.781608E1,4.9473953E1,8.121418E1,8.181465E1,3.390482E1,3.9077126E1,0E0,1.0102985E1,7.669172E-1,2.2779896E1,2.9865318E1,4.0062515E1,6.2253468E1,4.999299E1,1.8081805E2,1.4969206E1,4.681421E1,3.2947987E1,3.0790218E1,9.9729126E1,4.651724E1,4.889946E1,6.703105E1,2.6602865E1,1.7749035E1,3.2552197E1,0E0,1.9978695E0,1.4856094E0,0E0,0E0,0E0,0E0,0E0,0E0,0E0,0E0,0E0,0E0,0E0,0E0,0E0,0E0,0E0,0E0,0E0,0E0,0E0,0E0,0E0,0E0,0E0,0E0,0E0,0E0,0E0,0E0,0E0,0E0,0E0,0E0,0E0,0E0,0E0,0E0,0E0,0E0,0E0,0E0],"parents":[2147483647,0,0,1,1,2,2,3,3,4,4,6,6,7,7,8,8,9,9,10,10,11,11,12,12,13,13,14,14,15,15,16,16,17,17,18,18,19,19,20,20,21,21,23,23,24,24,25,25,26,26,27,27,28,28,29,29,30,30,31,31,32,32,33,33,34,34,35,35,36,36,37,37,38,38,39,39,40,40,41,41,43,43,44,44],"right_children":[2,4,6,8,10,-1,12,14,16,18,20,22,24,26,28,30,32,34,36,38,40,42,-1,44,46,48,50,52,54,56,58,60,62,64,66,68,70,72,74,76,78,80,-1,82,84,-1,-1,-1,-1,-1,-1,-1,-1,-1,-1,-1,-1,-1,-1,-1,-1,-1,-1,-1,-1,-1,-1,-1,-1,-1,-1,-1,-1,-1,-1,-1,-1,-1,-1,-1,-1,-1,-1,-1,-1],"split_conditions":[2.145E2,1.205E2,2.2715E1,4.845E1,4.745E1,1.556804E0,5.2E1,1.155E2,1.6865E2,2.459E1,7.61E1,2.43E2,6.0449997E1,5.505E1,9.45E1,1.125E2,4.095E1,5.69E1,1.6445E2,5.9175E1,4.8949997E1,2.435E2,-7.409523E-1,1.27E2,2.375E2,1.38E3,3.165E1,8.55E1,1.26149994E2,1.5795E2,9.01E1,1.695E2,5.35E1,1.125E2,1.4835E2,6.8E-1,2.285E3,1.5935E2,1.275E2,9.75E1,4.97E1,4.65E1,1.1542616E0,4.96E1,2.4E2,6.893494E-1,1.498146E-1,2.1797697E-1,-2.1558404E-1,-1.8950364E-1,7.083215E-1,-4.612485E-1,-1.4495772E0,2.0303628E-1,-6.881659E-1,4.483061E-1,6.2017194E-3,1.6268371E0,3.2040554E-1,-3.60767E-1,6.082358E-1,-3.1156737E-1,2.661567E-1,-3.1001514E-1,2.041511E-1,2.0957415E-1,-1.0361154E0,2.2171898E-1,1.2813123E0,2.969639E-1,-5.310931E-1,-1.5793817E-1,4.724805E-1,-7.463752E-1,-2.2397266E-1,4.0499204E-1,-3.2112688E-1,9.38397E-2,7.0162886E-1,-5.377684E-2,6.561962E-1,-2.6790106E-1,-6.476306E-1,1.0605858E-1,-1.6101915E-1],"split_indices":[0,16,29,11,10,0,11,19,0,29,15,20,12,9,20,25,6,9,14,15,9,27,0,20,0,28,7,20,25,14,8,0,6,27,1,23,28,0,16,20,11,13,0,6,0,0,0,0,0,0,0,0,0,0,0,0,0,0,0,0,0,0,0,0,0,0,0,0,0,0,0,0,0,0,0,0,0,0,0,0,0,0,0,0,0],"split_type":[0,0,0,0,0,0,0,0,0,0,0,0,0,0,0,0,0,0,0,0,0,0,0,0,0,0,0,0,0,0,0,0,0,0,0,0,0,0,0,0,0,0,0,0,0,0,0,0,0,0,0,0,0,0,0,0,0,0,0,0,0,0,0,0,0,0,0,0,0,0,0,0,0,0,0,0,0,0,0,0,0,0,0,0,0],"sum_hessian":[6.58E2,6.07E2,5.1E1,3.13E2,2.94E2,3E0,4.8E1,1.09E2,2.04E2,1.14E2,1.8E2,3E1,1.8E1,5.8E1,5.1E1,1.39E2,6.5E1,5.6E1,5.8E1,1.43E2,3.7E1,2.8E1,2E0,1.5E1,3E0,4.2E1,1.6E1,1.9E1,3.2E1,9.7E1,4.2E1,1E1,5.5E1,4.8E1,8E0,3.2E1,2.6E1,5E1,9.3E1,1.8E1,1.9E1,2.2E1,6E0,9E0,6E0,2E0,1E0,2.3E1,1.9E1,4E0,1.2E1,1.4E1,5E0,2.3E1,9E0,3.6E1,6.1E1,1.4E1,2.8E1,1E0,9E0,3.7E1,1.8E1,1.6E1,3.2E1,2E0,6E0,1.7E1,1.5E1,1.8E1,8E0,3.5E1,1.5E1,3.7E1,5.6E1,6E0,1.2E1,7E0,1.2E1,1.1E1,1.1E1,5E0,4E0,4E0,2E0],"tree_param":{"num_deleted":"0","num_feature":"34","num_nodes":"85","size_leaf_vector":"0"}},{"base_weights":[1.726301E-1,1.4584193E-1,1.8965981E0,9.385767E-2,1.0565981E0,-2.3099518E-1,2.1586635E0,-5.8406297E-2,4.4348145E-1,3.97354E-1,4.9325914E0,2.7940674E0,1.3752836E0,-1.4645891E-1,1.5061098E0,2.1608715E0,2.3639047E-1,-2.7727064E-1,1.2363461E0,1.803894E-1,6.0755444E0,1.2613728E0,-2.5751033E-1,-5.6287384E-1,3.8143532E0,9.0456665E-1,4.364785E0,-3.5836825E-1,6.861925E-1,-4.9194786E-1,1.686121E0,2.4068077E0,3.1866667E-1,7.968659E-1,5.176313E0,5.2605164E-1,-4.274613E-1,1.3222027E0,-1.260617E0,7.046143E-1,5.490688E0,1.4639431E0,-3.9509964E-1,1.1152166E0,5.4415693E0,3.0822754E-3,-2.395915E0,-8.4219104E-1,9.574067E-1,-1.0638199E0,2.8438568E-1,9.554182E-3,9.3370694E-1],"categories":[],"categories_nodes":[],"categories_segments":[],"categories_sizes":[],"default_left":[true,true,true,true,true,false,true,true,true,true,true,false,false,true,true,true,true,true,true,false,false,true,true,true,true,true,true,true,true,true,false,false,true,false,false,false,false,false,false,false,false,false,false,false,false,false,false,false,false,false,false,false,false],"id":18,"left_children":[1,3,5,7,9,-1,11,13,15,17,19,-1,-1,21,23,25,27,29,31,-1,-1,33,35,37,39,41,43,45,47,49,-1,-1,51,-1,-1,-1,-1,-1,-1,-1,-1,-1,-1,-1,-1,-1,-1,-1,-1,-1,-1,-1,-1],"loss_changes":[3.0157295E1,3.0675072E1,6.0743256E0,3.2818726E1,8.74729E1,0E0,6.372299E-1,5.9457264E1,6.599686E1,1.7888948E1,2.6061752E1,0E0,0E0,6.4112236E1,1.11988495E2,5.1427505E1,4.5189888E1,8.416402E0,1.427055E1,0E0,0E0,5.0430668E1,5.0695198E1,1.8765682E1,5.3473785E1,1.0756442E1,1.8425064E1,5.3769863E1,4.0600174E1,7.8499126E0,0E0,0E0,1.7021288E0,0E0,0E0,0E0,0E0,0E0,0E0,0E0,0E0,0E0,0E0,0E0,0E0,0E0,0E0,0E0,0E0,0E0,0E0,0E0,0E0],"parents":[2147483647,0,0,1,1,2,2,3,3,4,4,6,6,7,7,8,8,9,9,10,10,13,13,14,14,15,15,16,16,17,17,18,18,21,21,22,22,23,23,24,24,25,25,26,26,27,27,28,28,29,29,32,32],"right_children":[2,4,6,8,10,-1,12,14,16,18,20,-1,-1,22,24,26,28,30,32,-1,-1,34,36,38,40,42,44,46,48,50,-1,-1,52,-1,-1,-1,-1,-1,-1,-1,-1,-1,-1,-1,-1,-1,-1,-1,-1,-1,-1,-1,-1],"split_conditions":[1.3079999E2,5.485E1,1.2765E2,1.784E2,5.31E1,-6.929856E-2,5E-1,1.5E2,6.23E1,7.65E1,4.32E1,8.3822024E-1,4.125851E-1,3.425E1,1.465E3,9.85E1,1.699E2,1.663E2,8.7E1,5.4116823E-2,1.8226634E0,1.50195E2,5.325E1,1.536E2,9.905E1,4.9E1,1.225E2,1.481E2,9.595E1,9.555E1,5.058363E-1,7.220423E-1,8.05E-1,2.3905978E-1,1.552894E0,1.578155E-1,-1.282384E-1,3.9666083E-1,-3.7818512E-1,2.113843E-1,1.6472064E0,4.3918297E-1,-1.1852989E-1,3.3456498E-1,1.6324708E0,9.2468265E-4,-7.1877456E-1,-2.5265732E-1,2.8722203E-1,-3.1914598E-1,8.5315704E-2,2.8662547E-3,2.801121E-1],"split_indices":[22,10,0,3,4,0,32,25,15,17,9,0,0,27,28,20,14,25,5,0,0,24,15,25,22,13,16,25,27,8,0,0,23,0,0,0,0,0,0,0,0,0,0,0,0,0,0,0,0,0,0,0,0],"split_type":[0,0,0,0,0,0,0,0,0,0,0,0,0,0,0,0,0,0,0,0,0,0,0,0,0,0,0,0,0,0,0,0,0,0,0,0,0,0,0,0,0,0,0,0,0,0,0,0,0,0,0,0,0],"sum_hessian":[6.58E2,6.49E2,9E0,6.15E2,3.4E1,1E0,8E0,4.29E2,1.86E2,3E1,4E0,3E0,5E0,4.07E2,2.2E1,1.9E1,1.67E2,1.7E1,1.3E1,1E0,3E0,2.9E1,3.78E2,1.2E1,1E1,1.3E1,6E0,7.2E1,9.5E1,1.6E1,1E0,5E0,8E0,2.7E1,2E0,6.7E1,3.11E2,3E0,9E0,4E0,6E0,9E0,4E0,2E0,4E0,6.2E1,1E1,1.4E1,8.1E1,9E0,7E0,6E0,2E0],"tree_param":{"num_deleted":"0","num_feature":"34","num_nodes":"53","size_leaf_vector":"0"}},{"base_weights":[1.3546589E-1,8.014869E-1,7.8280754E-2,5.471737E-1,6.8857307E0,1.1731354E0,3.7113663E-2,-1.05052404E-1,1.8578054E0,-7.580614E-2,1.7610285E0,-2.301501E-1,2.1619643E-1,-1.262613E0,6.363522E-1,2.3600318E0,-3.64439E-1,9.956207E-1,-5.9888524E-1,2.1989434E0,7.0266724E-3,6.4350575E-2,-1.1561146E0,2.096023E0,1.3213255E-1,-1.7730491E0,1.078186E-2,-9.2725754E-2,2.2119086E0,3.9303513E0,1.5744584E0,4.1203815E-2,-7.9068375E-1,1.3148346E0,1.785965E-1,4.9095154E-3,-9.0200996E-1,4.0835318E-1,2.5162263E0,-1.1854807E-1,1.9187546E-1,1.8700849E0,-5.2869596E-2,-2.1107137E0,-4.482764E-1,1.1428925E0,3.3352368E0,6.6708976E-1,-8.9087866E-2,-1.9287469E0,-1.8588448E-1,-3.0191422E-1,6.307831E-1,3.3896685E-1,-4.6614966E-1,3.7513173E0,8.4588164E-1,3.6506653E-1,1.8026491E0,4.9346924E-2,1.2458801E-2,-2.3090363E-2,3.0454636E-2,9.3942356E-1,3.0577953E0,3.1449971E0,-2.888092E-1,-1.8176632E0,5.7073295E-2,1.0090275E0,-2.60444E0,1.5728233E0,-7.701838E-1,1.4112129E0,4.6407063E-2,4.187134E0,1.0876287E0,2.9618818E-1,2.438722E0,7.461664E-1,-3.7789613E-1],"categories":[],"categories_nodes":[],"categories_segments":[],"categories_sizes":[],"default_left":[true,true,true,true,false,true,true,true,true,true,true,true,true,true,true,true,true,true,true,true,true,true,true,true,true,true,true,true,true,false,true,true,false,false,false,true,false,false,true,false,false,true,true,true,true,true,true,true,true,false,false,false,false,false,false,false,false,false,false,false,false,false,false,false,false,false,false,false,false,false,false,false,false,false,false,false,false,false,false,false,false],"id":19,"left_children":[1,3,5,7,-1,9,11,13,15,17,19,21,23,25,27,29,31,33,35,37,39,41,43,45,47,49,51,53,55,-1,57,59,-1,-1,-1,61,-1,-1,63,-1,-1,65,67,69,71,73,75,77,79,-1,-1,-1,-1,-1,-1,-1,-1,-1,-1,-1,-1,-1,-1,-1,-1,-1,-1,-1,-1,-1,-1,-1,-1,-1,-1,-1,-1,-1,-1,-1,-1],"loss_changes":[2.503626E1,7.66921E1,2.7360226E1,4.3791405E1,0E0,1.6286865E1,2.814495E1,3.0841194E1,1.9833282E1,5.0797906E0,1.15061035E1,6.443092E1,5.5348038E1,9.118931E0,2.5476578E1,1.1082245E1,7.241916E-1,5.475917E-1,1.1025791E0,5.7899704E0,1.1559582E-1,3.8199196E1,3.7568817E1,1.3905174E1,4.005952E1,2.1126575E0,1.1598021E0,2.7372787E0,1.1546944E1,0E0,2.3776073E0,8.741766E-5,0E0,0E0,0E0,2.8489893E-3,0E0,0E0,5.666916E0,0E0,0E0,3.1184711E1,3.308825E1,3.95951E1,2.3332E1,2.876605E0,6.934334E0,6.43307E1,5.817677E1,0E0,0E0,0E0,0E0,0E0,0E0,0E0,0E0,0E0,0E0,0E0,0E0,0E0,0E0,0E0,0E0,0E0,0E0,0E0,0E0,0E0,0E0,0E0,0E0,0E0,0E0,0E0,0E0,0E0,0E0,0E0,0E0],"parents":[2147483647,0,0,1,1,2,2,3,3,5,5,6,6,7,7,8,8,9,9,10,10,11,11,12,12,13,13,14,14,15,15,16,16,17,17,18,18,19,19,20,20,21,21,22,22,23,23,24,24,25,25,26,26,27,27,28,28,30,30,31,31,35,35,38,38,41,41,42,42,43,43,44,44,45,45,46,46,47,47,48,48],"right_children":[2,4,6,8,-1,10,12,14,16,18,20,22,24,26,28,30,32,34,36,38,40,42,44,46,48,50,52,54,56,-1,58,60,-1,-1,-1,62,-1,-1,64,-1,-1,66,68,70,72,74,76,78,80,-1,-1,-1,-1,-1,-1,-1,-1,-1,-1,-1,-1,-1,-1,-1,-1,-1,-1,-1,-1,-1,-1,-1,-1,-1,-1,-1,-1,-1,-1,-1,-1],"split_conditions":[7.65E2,6.35E1,4.35E1,6.75E2,2.0657194E0,1.2565E3,8.95E1,4.05E1,9.05E-1,4.8949997E1,1.61295E2,5.35E1,4.3949997E1,1.1175E2,5.185E1,7.6E1,1.881E2,1.775E2,5.0949997E1,1.563E2,1.8345E2,4.5E1,4.0699997E1,1.305E2,1.05E0,2.235E2,5.99E1,4E0,5.2550003E1,1.1791054E0,1.5155E2,1.7025E2,-2.3720513E-1,3.944504E-1,5.357895E-2,1.6885E2,-2.70603E-1,1.22505955E-1,4.82E1,-3.5564423E-2,5.7562638E-2,1.08399994E2,1.2015E2,4.3E1,4.8199997E1,1.9335E2,6.65E-1,2.6E1,2.3645E1,-5.786241E-1,-5.5765346E-2,-9.0574265E-2,1.8923493E-1,1.0169006E-1,-1.3984491E-1,1.1253952E0,2.537645E-1,1.09519966E-1,5.407948E-1,1.4804077E-2,3.7376406E-3,-6.927109E-3,9.136391E-3,2.818271E-1,9.173386E-1,9.4349915E-1,-8.6642765E-2,-5.45299E-1,1.712199E-2,3.0270827E-1,-7.81332E-1,4.71847E-1,-2.3105516E-1,4.233639E-1,1.39221195E-2,1.2561402E0,3.2628864E-1,8.885646E-2,7.316166E-1,2.2384994E-1,-1.1336885E-1],"split_indices":[28,13,20,28,0,28,20,7,21,4,24,13,4,22,11,20,0,0,4,14,0,9,7,16,26,0,9,18,11,0,14,0,0,0,0,0,0,0,11,0,0,22,1,10,11,27,23,29,29,0,0,0,0,0,0,0,0,0,0,0,0,0,0,0,0,0,0,0,0,0,0,0,0,0,0,0,0,0,0,0,0],"split_type":[0,0,0,0,0,0,0,0,0,0,0,0,0,0,0,0,0,0,0,0,0,0,0,0,0,0,0,0,0,0,0,0,0,0,0,0,0,0,0,0,0,0,0,0,0,0,0,0,0,0,0,0,0,0,0,0,0,0,0,0,0,0,0,0,0,0,0,0,0,0,0,0,0,0,0,0,0,0,0,0,0],"sum_hessian":[6.58E2,5.1E1,6.07E2,5E1,1E0,2.1E1,5.86E2,3.4E1,1.6E1,7E0,1.4E1,2.35E2,3.51E2,1.3E1,2.1E1,1.3E1,3E0,2E0,5E0,1.1E1,3E0,1.79E2,5.6E1,1.4E1,3.37E2,9E0,4E0,1.5E1,6E0,3E0,1E1,2E0,1E0,1E0,1E0,2E0,3E0,2E0,9E0,2E0,1E0,1E1,1.69E2,2.3E1,3.3E1,9E0,5E0,9.8E1,2.39E2,8E0,1E0,3E0,1E0,7E0,8E0,2E0,4E0,2E0,8E0,1E0,1E0,1E0,1E0,3E0,6E0,6E0,4E0,9E0,1.6E2,3E0,2E1,4E0,2.9E1,7E0,2E0,3E0,2E0,8.2E1,1.6E1,6.1E1,1.78E2],"tree_param":{"num_deleted":"0","num_feature":"34","num_nodes":"81","size_leaf_vector":"0"}},{"base_weights":[1.08553916E-1,-1.4834175E0,1.279208E-1,3.6427498E-1,-2.664888E0,9.145846E-1,6.2479503E-2,7.9468155E-1,-4.4087727E-2,-6.717758E-1,-2.995222E0,6.3635725E-1,5.061361E0,-2.9802075E-1,1.7314738E-1,-2.1000671E-1,1.4387512E-1,1.1471955E0,-2.7877298E-1,9.2953384E-2,-1.0192722E0,3.918484E-1,-1.4482737E-1,-6.619652E-1,1.4397365E0,-1.3556792E0,3.7265334E-1,-1.03055865E-1,1.7301357E0,-6.1185265E-1,-3.434585E0,8.6886644E-1,-1.0573959E-1,1.7410088E0,-2.5990763E-1,-9.226923E-1,1.9047165E-1,1.9941897E0,2.9774705E-1,-4.8613867E-1,-1.6062676E0,1.1432709E0,-1.5556431E-1,2.9089268E-2,-1.560808E0,1.6170502E-1,2.1020303E0,-1.2770749E0,3.3065435E-1,-5.5993834E0,-4.1114044E-1,1.2109882E-1,1.5341579E0,7.973815E-1,-3.826063E-1,3.0449185E-1,3.4039307E0,-1.7219047E-1,-2.7603874E0],"categories":[],"categories_nodes":[],"categories_segments":[],"categories_sizes":[],"default_left":[true,true,true,true,true,true,true,false,true,false,false,true,false,true,true,false,false,true,true,true,true,true,true,true,true,true,true,true,true,true,true,true,true,true,true,false,false,false,false,false,false,false,false,false,false,false,false,false,false,false,false,false,false,false,false,false,false,false,false],"id":20,"left_children":[1,3,5,7,9,11,13,-1,15,-1,-1,17,-1,19,21,-1,-1,23,25,27,29,31,33,35,37,39,41,43,45,47,49,51,53,55,57,-1,-1,-1,-1,-1,-1,-1,-1,-1,-1,-1,-1,-1,-1,-1,-1,-1,-1,-1,-1,-1,-1,-1,-1],"loss_changes":[2.0507748E1,1.8434706E1,3.3508015E1,7.380838E-1,1.2798462E0,5.4466503E1,2.4108767E1,0E0,1.2377456E-1,0E0,0E0,2.2759014E1,0E0,4.013742E1,3.2184875E1,0E0,0E0,1.7359924E1,1.31326475E1,3.0022268E1,4.710083E1,6.512809E1,4.1469765E1,1.2870138E0,1.6502094E1,7.444086E-1,5.062497E0,1.6226728E1,5.493E0,2.8009243E1,4.35139E1,6.946188E1,3.4061047E1,2.5240498E1,3.8785652E1,0E0,0E0,0E0,0E0,0E0,0E0,0E0,0E0,0E0,0E0,0E0,0E0,0E0,0E0,0E0,0E0,0E0,0E0,0E0,0E0,0E0,0E0,0E0,0E0],"parents":[2147483647,0,0,1,1,2,2,3,3,4,4,5,5,6,6,8,8,11,11,13,13,14,14,17,17,18,18,19,19,20,20,21,21,22,22,23,23,24,24,25,25,26,26,27,27,28,28,29,29,30,30,31,31,32,32,33,33,34,34],"right_children":[2,4,6,8,10,12,14,-1,16,-1,-1,18,-1,20,22,-1,-1,24,26,28,30,32,34,36,38,40,42,44,46,48,50,52,54,56,58,-1,-1,-1,-1,-1,-1,-1,-1,-1,-1,-1,-1,-1,-1,-1,-1,-1,-1,-1,-1,-1,-1,-1,-1],"split_conditions":[1.8369999E1,3.25E1,2.0285E1,1.3205E2,1.3525E2,1.265E2,6.65E1,2.3840447E-1,1.607E2,-2.0153275E-1,-8.9856666E-1,1.945E3,1.5184083E0,6.15E1,7.95E1,-6.300202E-2,4.316254E-2,2.499E2,8.2399994E1,1.945E2,2.6645E2,4.515E1,2.1465E1,1.1975E2,1.0995E2,4.0300003E1,9.4E1,5.9949997E1,1.1295E2,6.34E1,1.0135E2,3.795E1,9.5E-1,5.08E1,5.585E1,-2.768077E-1,5.7141498E-2,5.9825695E-1,8.932412E-2,-1.4584161E-1,-4.8188028E-1,3.4298128E-1,-4.6669293E-2,8.726781E-3,-4.682424E-1,4.851151E-2,6.306091E-1,-3.831225E-1,9.919631E-2,-1.679815E0,-1.23342134E-1,3.6329646E-2,4.6024737E-1,2.3921447E-1,-1.14781894E-1,9.134756E-2,1.0211792E0,-5.1657144E-2,-8.2811624E-1],"split_indices":[29,13,29,1,0,25,17,0,0,0,0,28,0,17,17,0,0,2,5,1,27,12,29,0,22,6,5,9,25,15,5,12,26,9,4,0,0,0,0,0,0,0,0,0,0,0,0,0,0,0,0,0,0,0,0,0,0,0,0],"split_type":[0,0,0,0,0,0,0,0,0,0,0,0,0,0,0,0,0,0,0,0,0,0,0,0,0,0,0,0,0,0,0,0,0,0,0,0,0,0,0,0,0,0,0,0,0,0,0,0,0,0,0,0,0,0,0,0,0,0,0],"sum_hessian":[6.58E2,7E0,6.51E2,3E0,4E0,4.9E1,6.02E2,1E0,2E0,1E0,3E0,4.7E1,2E0,1.41E2,4.61E2,1E0,1E0,3E1,1.7E1,9.2E1,4.9E1,2.73E2,1.88E2,4E0,2.6E1,6E0,1.1E1,8.3E1,9E0,4.3E1,6E0,1.39E2,1.34E2,1E1,1.78E2,3E0,1E0,1.7E1,9E0,2E0,4E0,4E0,7E0,7.7E1,6E0,2E0,7E0,2.5E1,1.8E1,3E0,3E0,6.6E1,7.3E1,3.1E1,1.03E2,6E0,4E0,1.73E2,5E0],"tree_param":{"num_deleted":"0","num_feature":"34","num_nodes":"59","size_leaf_vector":"0"}},{"base_weights":[7.5623095E-2,1.1174654E-2,5.289838E-1,-1.0350059E-1,3.956407E-1,3.3359772E-1,3.4712098E0,3.806174E-2,-7.323634E-1,4.7383347E0,3.2684502E-1,-1.1984406E0,5.258084E-1,8.7243146E-1,4.912918E0,-1.4011787E-1,5.840563E-1,1.0149935E0,-1.0464102E0,8.3881783E-1,-1.3859972E-1,-2.5796146E0,-7.791773E-2,9.296897E-1,-1.9344036E-1,1.1163597E0,1.9228745E-1,8.842295E-2,-6.2936896E-1,5.0105453E0,4.2651626E-1,-8.465067E-2,2.7913544E0,-1.7681419E0,-4.273891E-1,4.125701E-1,2.065135E0,-1.4002383E0,2.6114944E-1,-7.243373E-1,4.2637634E-1,1.5146607E0,-2.2523665E-1,-9.2101926E-1,7.3215324E-1,-5.482337E-1,3.6061096E-1,-1.1236511E0,4.699376E-1,-6.184171E-1,9.5060927E-1,3.67548E-1,-7.41786E-1,3.8144138E0,8.378436E-1,-2.3052342E-1,-2.2710762E0,1.2188121E0,-7.636321E-1,1.9964303E-1,2.7048569E0,2.5928316E0,3.8563615E-1,-3.268238E0,-5.7406616E-1,4.3890044E-1,-2.0704632E0,5.713959E-1,-4.3411255E-3,2.9192013E-1,1.9460247E0,-1.6334496E0,9.261159E-2,1.2744413E-1,-1.6341553E0,1.2302411E0,-1.1721903E0],"categories":[],"categories_nodes":[],"categories_segments":[],"categories_sizes":[],"default_left":[true,true,true,true,true,true,true,true,true,false,true,true,true,true,false,true,true,true,true,true,true,false,true,true,true,false,false,true,true,false,true,true,true,true,true,true,true,true,true,false,true,true,true,true,true,false,false,false,false,false,false,false,false,false,false,false,false,false,false,false,false,false,false,false,false,false,false,false,false,false,false,false,false,false,false,false,false],"id":21,"left_children":[1,3,5,7,9,11,13,15,17,-1,19,21,23,25,-1,27,29,31,33,35,37,-1,39,41,43,-1,-1,45,47,-1,49,51,53,55,57,59,61,63,65,-1,67,69,71,73,75,-1,-1,-1,-1,-1,-1,-1,-1,-1,-1,-1,-1,-1,-1,-1,-1,-1,-1,-1,-1,-1,-1,-1,-1,-1,-1,-1,-1,-1,-1,-1,-1],"loss_changes":[1.9249008E1,2.5524239E1,4.5981346E1,3.973226E1,3.8186188E1,2.3599129E1,1.444722E1,3.5590897E1,4.605975E1,0E0,3.1571205E1,1.37277355E1,2.051422E1,2.8305697E-1,0E0,3.0916271E1,6.062435E1,2.5630035E1,3.0518013E1,3.2079025E1,3.5669395E1,0E0,2.2647536E0,3.0743095E1,1.8183828E1,0E0,0E0,3.2949566E1,4.8344395E1,0E0,4.8780388E1,2.9470434E0,6.7969055E0,2.422274E1,2.2518147E1,2.288831E1,1.31803665E1,2.4359734E1,2.3288837E1,0E0,2.5233024E-1,1.5255295E1,7.312845E0,1.1423718E1,1.282444E1,0E0,0E0,0E0,0E0,0E0,0E0,0E0,0E0,0E0,0E0,0E0,0E0,0E0,0E0,0E0,0E0,0E0,0E0,0E0,0E0,0E0,0E0,0E0,0E0,0E0,0E0,0E0,0E0,0E0,0E0,0E0,0E0],"parents":[2147483647,0,0,1,1,2,2,3,3,4,4,5,5,6,6,7,7,8,8,10,10,11,11,12,12,13,13,15,15,16,16,17,17,18,18,19,19,20,20,22,22,23,23,24,24,27,27,28,28,30,30,31,31,32,32,33,33,34,34,35,35,36,36,37,37,38,38,40,40,41,41,42,42,43,43,44,44],"right_children":[2,4,6,8,10,12,14,16,18,-1,20,22,24,26,-1,28,30,32,34,36,38,-1,40,42,44,-1,-1,46,48,-1,50,52,54,56,58,60,62,64,66,-1,68,70,72,74,76,-1,-1,-1,-1,-1,-1,-1,-1,-1,-1,-1,-1,-1,-1,-1,-1,-1,-1,-1,-1,-1,-1,-1,-1,-1,-1,-1,-1,-1,-1,-1,-1],"split_conditions":[5.315E1,1.3465E2,5.485E1,1.45E0,2.0065E1,4.375E1,5.57E1,6.695E1,1.5215E2,1.4215004E0,1.4805E2,8.685E1,1.5045E2,1.3125E2,1.4738755E0,1.6095E2,6.745E1,4.3E1,1.725E2,1.948E2,6.85E1,-7.738844E-1,1.787E2,1.355E2,7.05E-1,3.3490792E-1,5.7686236E-2,2.6785E2,5.29E1,1.5031637E0,4.965E1,1.935E3,8.285E1,1.5985E2,1.665E2,9.15E-1,1.95E0,6.05E-1,5.815E1,-2.1730119E-1,2.01E2,5.41E1,3.88E1,7.65E1,1.0175E2,-1.644701E-1,1.08183295E-1,-3.3709535E-1,1.4098129E-1,-1.8552513E-1,2.851828E-1,1.102644E-1,-2.225358E-1,1.1443242E0,2.5135309E-1,-6.915703E-2,-6.813229E-1,3.6564365E-1,-2.2908965E-1,5.989291E-2,8.114571E-1,7.778495E-1,1.1569085E-1,-9.8047143E-1,-1.7221986E-1,1.3167013E-1,-6.21139E-1,1.7141877E-1,-1.3023377E-3,8.757604E-2,5.838074E-1,-4.9003488E-1,2.7783478E-2,3.8233243E-2,-4.902466E-1,3.6907232E-1,-3.516571E-1],"split_indices":[4,25,10,26,29,27,15,15,3,0,25,5,27,0,0,14,15,13,1,0,17,0,0,19,23,0,0,2,11,0,9,28,5,3,14,23,26,23,9,0,1,15,12,20,5,0,0,0,0,0,0,0,0,0,0,0,0,0,0,0,0,0,0,0,0,0,0,0,0,0,0,0,0,0,0,0,0],"split_type":[0,0,0,0,0,0,0,0,0,0,0,0,0,0,0,0,0,0,0,0,0,0,0,0,0,0,0,0,0,0,0,0,0,0,0,0,0,0,0,0,0,0,0,0,0,0,0,0,0,0,0,0,0,0,0,0,0,0,0,0,0,0,0,0,0,0,0,0,0,0,0,0,0,0,0,0,0],"sum_hessian":[6.58E2,5.77E2,8.1E1,4.45E2,1.32E2,7.7E1,4E0,3.64E2,8.1E1,1E0,1.31E2,8E0,6.9E1,2E0,2E0,2.75E2,8.9E1,1.2E1,6.9E1,6.2E1,6.9E1,3E0,5E0,4.4E1,2.5E1,1E0,1E0,1.88E2,8.7E1,2E0,8.7E1,8E0,4E0,3.1E1,3.8E1,4.7E1,1.5E1,1.6E1,5.3E1,2E0,3E0,2.9E1,1.5E1,1.4E1,1.1E1,5.6E1,1.32E2,6E1,2.7E1,2.9E1,5.8E1,5E0,3E0,2E0,2E0,8E0,2.3E1,6E0,3.2E1,4.4E1,3E0,1.1E1,4E0,4E0,1.2E1,5E1,3E0,2E0,1E0,8E0,2.1E1,2E0,1.3E1,6E0,8E0,9E0,2E0],"tree_param":{"num_deleted":"0","num_feature":"34","num_nodes":"77","size_leaf_vector":"0"}},{"base_weights":[5.958864E-2,8.6383715E-2,-8.99413E-1,-6.410703E-4,4.2585173E-1,4.3230882E-1,-1.4448682E0,3.1673396E-1,-1.678278E-1,1.4011778E0,1.22277856E-1,-6.982028E-1,1.1721153E0,5.991414E-1,-1.8709737E0,-1.9196253E-2,6.8055487E-1,-7.084137E-1,9.481099E-3,-1.2245045E0,1.7262332E0,1.7142317E0,-3.309701E-2,3.861046E-2,-1.0859146E0,-2.5977151E0,-4.7934112E-1,1.2986755E-1,-2.202266E0,9.567742E-1,-2.6499653E-1,-8.869502E-1,3.0394192E0,-3.095925E-1,5.844106E-1,-1.8520737E0,3.2910156E-1,5.0023746E-1,2.490099E0,2.650037E0,-1.1803436E-1,-8.8802516E-1,2.1329461E-1,-1.7272823E-1,-6.261737E-1,5.928512E-1,-3.6843747E-1,7.74592E-1,3.5869503E0,5.574999E-1,-1.3322144E0,2.3877986E-1,-1.1721137E0,3.0841446E-1,3.8469493E0,-5.741019E-1,3.8141227E-1,1.5150814E0,-5.230269E-2,-3.0234274E-1,1.1167009E0,3.4341197E0,1.2694002E0,4.4569016E-1,3.0017686E0,-4.3434396E-1,4.1544724E-1,2.1335583E0,-1.1457822E0,-5.3651077E-1,6.1499554E-1],"categories":[],"categories_nodes":[],"categories_segments":[],"categories_sizes":[],"default_left":[true,true,true,true,true,true,true,true,true,true,true,true,false,false,true,true,true,true,true,true,true,true,true,false,false,false,true,true,false,true,true,true,true,true,true,false,false,true,true,true,true,true,true,false,false,false,false,false,false,false,false,false,false,false,false,false,false,false,false,false,false,false,false,false,false,false,false,false,false,false,false],"id":22,"left_children":[1,3,5,7,9,11,13,15,17,19,21,23,-1,-1,25,27,29,31,33,35,37,39,41,-1,-1,-1,43,45,-1,47,49,51,53,55,57,-1,-1,59,61,63,65,67,69,-1,-1,-1,-1,-1,-1,-1,-1,-1,-1,-1,-1,-1,-1,-1,-1,-1,-1,-1,-1,-1,-1,-1,-1,-1,-1,-1,-1],"loss_changes":[1.7011703E1,1.896632E1,1.3699734E1,2.7220335E1,3.861561E1,5.836533E0,1.2443506E1,2.1645727E1,3.221255E1,2.8572033E1,2.5039047E1,8.9894116E-1,0E0,0E0,9.879734E0,3.0549757E1,2.2453804E1,5.8233173E1,4.6775913E1,4.509501E0,2.497625E1,1.57445965E1,1.9779596E1,0E0,0E0,0E0,1.1694586E-1,2.0520653E1,0E0,2.8846882E1,1.8298367E1,2.5961246E1,7.635021E0,3.0194447E1,5.4003162E1,0E0,0E0,6.274762E0,1.5230934E1,3.314167E0,8.5542846E-1,1.8800117E1,2.231737E1,0E0,0E0,0E0,0E0,0E0,0E0,0E0,0E0,0E0,0E0,0E0,0E0,0E0,0E0,0E0,0E0,0E0,0E0,0E0,0E0,0E0,0E0,0E0,0E0,0E0,0E0,0E0,0E0],"parents":[2147483647,0,0,1,1,2,2,3,3,4,4,5,5,6,6,7,7,8,8,9,9,10,10,11,11,14,14,15,15,16,16,17,17,18,18,19,19,20,20,21,21,22,22,26,26,27,27,29,29,30,30,31,31,32,32,33,33,34,34,37,37,38,38,39,39,40,40,41,41,42,42],"right_children":[2,4,6,8,10,12,14,16,18,20,22,24,-1,-1,26,28,30,32,34,36,38,40,42,-1,-1,-1,44,46,-1,48,50,52,54,56,58,-1,-1,60,62,64,66,68,70,-1,-1,-1,-1,-1,-1,-1,-1,-1,-1,-1,-1,-1,-1,-1,-1,-1,-1,-1,-1,-1,-1,-1,-1,-1,-1,-1,-1],"split_conditions":[2.87E2,1.455E2,5E-1,2.2470001E1,1.595E2,3.645E2,9E2,2.965E2,2.3735E1,3.2E1,3.05E1,1.9154999E2,3.5163462E-1,1.7974243E-1,1.47E2,1.7105E2,5.2550003E1,2.746E2,5.285E1,2.321E2,1.4955E2,1.3E2,1.045E2,1.1583138E-2,-3.257744E-1,-7.793146E-1,1.8229999E2,1.1795E2,-6.606798E-1,1.5325E2,6.25E-1,7.3149994E1,1.3955E2,1.9405E2,1.1500001E0,-5.556221E-1,9.8730475E-2,4.775E1,2.042E2,7.895E1,1.78E2,5.26E1,5E-1,-5.181847E-2,-1.8785211E-1,1.7785537E-1,-1.1053125E-1,2.323776E-1,1.0760851E0,1.6724998E-1,-3.996643E-1,7.163396E-2,-3.5163411E-1,9.252434E-2,1.1540848E0,-1.7223059E-1,1.14423685E-1,4.5452443E-1,-1.5690807E-2,-9.0702824E-2,3.350103E-1,1.030236E0,3.808201E-1,1.3370705E-1,9.0053064E-1,-1.3030319E-1,1.2463418E-1,6.400675E-1,-3.4373468E-1,-1.6095324E-1,1.8449867E-1],"split_indices":[20,20,32,29,20,20,28,2,29,13,13,0,0,0,19,14,7,27,9,0,27,19,19,0,0,0,0,27,0,25,23,8,1,3,26,0,0,10,27,8,0,0,32,0,0,0,0,0,0,0,0,0,0,0,0,0,0,0,0,0,0,0,0,0,0,0,0,0,0,0,0],"split_type":[0,0,0,0,0,0,0,0,0,0,0,0,0,0,0,0,0,0,0,0,0,0,0,0,0,0,0,0,0,0,0,0,0,0,0,0,0,0,0,0,0,0,0,0,0,0,0,0,0,0,0,0,0,0,0,0,0,0,0,0,0,0,0,0,0,0,0,0,0,0,0],"sum_hessian":[6.58E2,6.41E2,1.7E1,5.11E2,1.3E2,5E0,1.2E1,1.76E2,3.35E2,3E1,1E2,2E0,3E0,2E0,1E1,9.2E1,8.4E1,8.2E1,2.53E2,3E0,2.7E1,8E0,9.2E1,1E0,1E0,6E0,4E0,8.7E1,5E0,6.5E1,1.9E1,7.9E1,3E0,1.63E2,9E1,2E0,1E0,1.1E1,1.6E1,5E0,3E0,2E1,7.2E1,2E0,2E0,4.5E1,4.2E1,6.2E1,3E0,1.1E1,8E0,1.6E1,6.3E1,1E0,2E0,1.18E2,4.5E1,3.6E1,5.4E1,5E0,6E0,8E0,8E0,1E0,4E0,2E0,1E0,1E0,1.9E1,2.5E1,4.7E1],"tree_param":{"num_deleted":"0","num_feature":"34","num_nodes":"71","size_leaf_vector":"0"}},{"base_weights":[4.7138005E-2,7.462003E-1,1.3774502E-2,-3.3613586E-1,1.155056E0,4.9524814E-2,-6.143641E-1,-6.884613E-1,8.3416745E-2,1.7015616E0,3.2909316E-1,2.1280393E-2,9.5687145E-1,1.2464447E0,-8.346502E-1,-1.8519974E-1,-7.6797676E-1,-1.5050252E-2,1.5407817E-1,1.1444473E-1,1.8242842E0,7.0065415E-1,-4.0341187E-1,3.6833724E-1,-5.3548343E-2,-9.8371506E-2,1.6373326E0,-1.0548967E0,5.2161103E-1,1.3183594E-2,-3.5758972E-2,2.3688164E0,1.0969304E0,-2.3853302E-2,8.25381E-1,-3.5882298E-2,1.6309375E0,-5.10902E-1,9.6095085E-2,-3.949572E-1,5.2759045E-1,2.0285327E0,7.621857E-1,1.1504146E-1,-1.394643E0,-1.5723419E-1,7.306309E-1,-3.3313358E-1,9.203393E-1,2.1770232E0,-9.8880994E-1,9.2990525E-2,-1.0218892E0,2.526212E-1,-4.7505248E-1,-2.11792E-2,-5.7655144E-1,-4.0457383E-1,9.4271976E-1,-1.5095583E0,-5.2886295E-1],"categories":[],"categories_nodes":[],"categories_segments":[],"categories_sizes":[],"default_left":[true,true,true,true,true,true,true,true,true,true,true,true,true,false,true,false,false,true,false,false,true,true,false,true,true,true,true,true,true,false,false,false,false,false,false,true,true,true,true,true,false,false,false,true,true,false,false,false,false,false,false,false,false,false,false,false,false,false,false,false,false],"id":23,"left_children":[1,3,5,7,9,11,13,15,17,19,21,23,25,-1,27,-1,-1,29,-1,-1,31,33,-1,35,37,39,41,43,45,-1,-1,-1,-1,-1,-1,47,49,51,53,55,-1,-1,-1,57,59,-1,-1,-1,-1,-1,-1,-1,-1,-1,-1,-1,-1,-1,-1,-1,-1],"loss_changes":[1.5359688E1,1.3663836E1,1.41778E1,1.3878006E0,9.37068E0,1.5279243E1,1.4977299E1,5.785632E-2,3.7108004E-2,2.3232994E0,3.0043554E0,1.5082223E1,1.3085999E1,0E0,9.810312E0,0E0,0E0,2.2254921E-3,0E0,0E0,2.1543846E0,6.522465E-1,0E0,5.2626396E1,3.27634E1,1.6935867E0,2.2198162E0,1.0892454E1,8.243407E-1,0E0,0E0,0E0,0E0,0E0,0E0,2.2761406E1,3.7917824E1,3.650763E1,3.239323E1,3.9504462E-1,0E0,0E0,0E0,3.3919199E0,1.2909737E0,0E0,0E0,0E0,0E0,0E0,0E0,0E0,0E0,0E0,0E0,0E0,0E0,0E0,0E0,0E0,0E0],"parents":[2147483647,0,0,1,1,2,2,3,3,4,4,5,5,6,6,7,7,8,8,9,9,10,10,11,11,12,12,14,14,17,17,20,20,21,21,23,23,24,24,25,25,26,26,27,27,28,28,35,35,36,36,37,37,38,38,39,39,43,43,44,44],"right_children":[2,4,6,8,10,12,14,16,18,20,22,24,26,-1,28,-1,-1,30,-1,-1,32,34,-1,36,38,40,42,44,46,-1,-1,-1,-1,-1,-1,48,50,52,54,56,-1,-1,-1,58,60,-1,-1,-1,-1,-1,-1,-1,-1,-1,-1,-1,-1,-1,-1,-1,-1],"split_conditions":[2.25E1,8.76E1,2.15E0,6.75E1,5.2199997E1,6.24E1,8E1,1.3695001E2,1.5695E2,4.8E1,1.556E2,1.3715E2,2.65E-1,3.7393343E-1,3.193E1,-5.5559922E-2,-2.3039304E-1,1.3129999E2,4.6223454E-2,3.4333423E-2,2.4494999E1,1.16E2,-1.21023566E-1,6.2375E1,1.551E2,2.005E2,6.7E-1,9.0600006E1,2.1985E2,3.9550783E-3,-1.0727692E-2,7.1064496E-1,3.2907912E-1,-7.1559907E-3,2.4761431E-1,1.343E2,5.75E1,1.183E2,5.135E1,4.6000004E0,1.5827714E-1,6.0855985E-1,2.2865571E-1,1.32E2,1.335E2,-4.717026E-2,2.1918927E-1,-9.994008E-2,2.761018E-1,6.53107E-1,-2.96643E-1,2.7897159E-2,-3.0656677E-1,7.578637E-2,-1.4251575E-1,-6.35376E-3,-1.7296544E-1,-1.21372156E-1,2.8281593E-1,-4.528675E-1,-1.5865889E-1],"split_indices":[13,27,26,17,9,7,19,1,0,20,25,0,23,0,29,0,0,0,0,0,29,16,0,15,0,0,23,22,0,0,0,0,0,0,0,3,13,27,7,18,0,0,0,19,16,0,0,0,0,0,0,0,0,0,0,0,0,0,0,0,0],"split_type":[0,0,0,0,0,0,0,0,0,0,0,0,0,0,0,0,0,0,0,0,0,0,0,0,0,0,0,0,0,0,0,0,0,0,0,0,0,0,0,0,0,0,0,0,0,0,0,0,0,0,0,0,0,0,0,0,0,0,0,0,0],"sum_hessian":[6.58E2,2.9E1,6.29E2,8E0,2.1E1,5.96E2,3.3E1,4E0,4E0,1.2E1,9E0,5.79E2,1.7E1,3E0,3E1,1E0,3E0,2E0,2E0,1E0,1.1E1,6E0,3E0,1.02E2,4.77E2,7E0,1E1,2.6E1,4E0,1E0,1E0,5E0,6E0,1E0,5E0,7.8E1,2.4E1,1.17E2,3.6E2,5E0,2E0,6E0,4E0,6E0,2E1,1E0,3E0,6E1,1.8E1,2E1,4E0,5.4E1,6.3E1,2.83E2,7.7E1,2E0,3E0,4E0,2E0,1.7E1,3E0],"tree_param":{"num_deleted":"0","num_feature":"34","num_nodes":"61","size_leaf_vector":"0"}},{"base_weights":[3.610264E-2,3.1552124E-3,6.234181E-1,-1.8765089E-1,1.3171132E-1,3.4715098E-1,2.2115905E0,-1.1988843E-1,-2.0039165E0,-7.272171E-1,2.4843879E-1,9.674284E-2,1.6299248E0,5.034892E-1,3.182495E0,-4.609842E-1,1.9797921E-1,1.847229E-1,-3.1290233E0,-9.3389964E-1,1.624754E0,5.702021E-1,3.9097138E-2,3.6663842E-1,-2.7117983E-1,7.2192764E-1,3.330612E-2,-1.15664564E-1,-1.1314659E0,-5.038527E-1,5.26452E-1,-4.66362E-1,5.572052E-1,-3.393634E0,-9.029846E-1,-1.3103049E0,2.4599734E-1,3.6966324E-1,1.9198965E0,9.091785E-1,9.6563725E-3,-6.966771E-1,2.2052845E-1,6.909237E-1,-1.4900316E-1,-2.604866E-2,-6.0915375E-1,-4.9407196E-1,6.31419E-1,-2.718183E-1,-2.2785292E0,-9.4307655E-1,1.4258299E0,8.1957155E-1,-5.779419E-2,-9.3714994E-1,-2.312626E0,-5.316429E-1,6.040678E-1,6.479586E-2,1.6538702E0,-1.8106632E0,2.5215107E-1,-1.4142399E-1,-1.9804825E0,5.961619E-1,-9.427386E-2,-3.3691406E-2,8.762889E-1,-5.713463E-2,-2.0362091E-1,1.0971737E-1,-1.2945175E-1,-7.585449E-1,-5.794525E-3],"categories":[],"categories_nodes":[],"categories_segments":[],"categories_sizes":[],"default_left":[true,true,true,true,true,true,true,true,true,true,true,true,false,true,false,true,true,true,true,true,true,true,true,true,true,false,false,true,true,true,true,false,false,false,false,true,true,false,false,true,true,true,true,true,true,true,true,false,false,false,false,false,false,false,false,false,false,false,false,false,false,false,false,false,false,false,false,false,false,false,false,false,false,false,false],"id":24,"left_children":[1,3,5,7,9,11,13,15,17,19,21,23,-1,25,-1,27,29,31,33,35,37,39,41,43,45,-1,-1,47,49,51,53,-1,-1,-1,-1,55,57,-1,-1,59,61,63,65,67,69,71,73,-1,-1,-1,-1,-1,-1,-1,-1,-1,-1,-1,-1,-1,-1,-1,-1,-1,-1,-1,-1,-1,-1,-1,-1,-1,-1,-1,-1],"loss_changes":[1.2750035E1,1.5355522E1,1.4588837E1,3.0774557E1,3.7678116E1,9.800043E0,6.689665E0,2.6546555E1,2.2740078E1,2.3392372E1,2.2206005E1,2.780544E0,0E0,2.8407353E-1,0E0,2.7189728E1,2.9542904E1,1.2299297E0,4.6980667E-1,1.8975346E1,7.7200794E-1,2.4692745E1,2.6985628E1,2.7783895E0,9.783077E-1,0E0,0E0,2.264542E1,3.8823463E1,3.6094734E1,1.4946461E1,0E0,0E0,0E0,0E0,9.801392E0,3.3840983E0,0E0,0E0,5.0826027E1,2.2527452E1,2.8233387E1,1.9212748E1,1.3727078E0,2.3489773E-2,1.2651214E-1,4.462874E-1,0E0,0E0,0E0,0E0,0E0,0E0,0E0,0E0,0E0,0E0,0E0,0E0,0E0,0E0,0E0,0E0,0E0,0E0,0E0,0E0,0E0,0E0,0E0,0E0,0E0,0E0,0E0,0E0],"parents":[2147483647,0,0,1,1,2,2,3,3,4,4,5,5,6,6,7,7,8,8,9,9,10,10,11,11,13,13,15,15,16,16,17,17,18,18,19,19,20,20,21,21,22,22,23,23,24,24,27,27,28,28,29,29,30,30,35,35,36,36,39,39,40,40,41,41,42,42,43,43,44,44,45,45,46,46],"right_children":[2,4,6,8,10,12,14,16,18,20,22,24,-1,26,-1,28,30,32,34,36,38,40,42,44,46,-1,-1,48,50,52,54,-1,-1,-1,-1,56,58,-1,-1,60,62,64,66,68,70,72,74,-1,-1,-1,-1,-1,-1,-1,-1,-1,-1,-1,-1,-1,-1,-1,-1,-1,-1,-1,-1,-1,-1,-1,-1,-1,-1,-1,-1],"split_conditions":[5.485E1,4.505E1,5.31E1,4.475E1,4.845E1,9.05E1,5.57E1,1.67E3,3.85E1,1.72845E2,5.095E1,4.295E1,4.8897746E-1,1.3125E2,9.547486E-1,1.355E3,8.25E1,1.7575E2,1.8485E2,1.138E2,1.3185E2,1.3499999E0,5.285E1,5.5E1,1.4155E2,2.165783E-1,9.991837E-3,1.255E2,1.25E2,4.075E1,7.2524994E1,-1.3990861E-1,1.6716157E-1,-1.0180902E0,-2.708954E-1,8.55E1,7.3E1,1.1089898E-1,5.75969E-1,5.9225E1,1E2,7.1500003E-1,1.608E3,9.9E1,5.4E0,1.0395E2,4.605E1,-1.482216E-1,1.894257E-1,-8.1545494E-2,-6.8355876E-1,-2.8292298E-1,4.2774898E-1,2.4587147E-1,-1.7338257E-2,-2.81145E-1,-6.937878E-1,-1.5949288E-1,1.8122035E-1,1.9438758E-2,4.9616107E-1,-5.43199E-1,7.564533E-2,-4.2427197E-2,-5.9414476E-1,1.7884858E-1,-2.8282158E-2,-1.0107422E-2,2.6288667E-1,-1.7140388E-2,-6.1086275E-2,3.2915212E-2,-3.8835526E-2,-2.2756349E-1,-1.7383576E-3],"split_indices":[10,6,4,6,9,17,15,28,13,24,6,6,0,0,0,28,20,0,1,5,0,26,6,13,25,0,0,19,16,7,15,0,0,0,0,17,17,0,0,15,16,23,28,19,18,25,6,0,0,0,0,0,0,0,0,0,0,0,0,0,0,0,0,0,0,0,0,0,0,0,0,0,0,0,0],"split_type":[0,0,0,0,0,0,0,0,0,0,0,0,0,0,0,0,0,0,0,0,0,0,0,0,0,0,0,0,0,0,0,0,0,0,0,0,0,0,0,0,0,0,0,0,0,0,0,0,0,0,0,0,0,0,0,0,0,0,0,0,0,0,0,0,0,0,0,0,0,0,0,0,0,0,0],"sum_hessian":[6.58E2,6.24E2,3.4E1,2.51E2,3.73E2,3E1,4E0,2.43E2,8E0,4.4E1,3.29E2,2.6E1,4E0,2E0,2E0,1.17E2,1.26E2,3E0,5E0,4.1E1,3E0,1.29E2,2E2,1.5E1,1.1E1,1E0,1E0,7.8E1,3.9E1,4E1,8.6E1,1E0,2E0,4E0,1E0,3.1E1,1E1,1E0,2E0,8E1,4.9E1,3.9E1,1.61E2,9E0,6E0,7E0,4E0,5.2E1,2.6E1,2.3E1,1.6E1,3.3E1,7E0,5.7E1,2.9E1,2.4E1,7E0,3E0,7E0,3.8E1,4.2E1,5E0,4.4E1,2.8E1,1.1E1,7.3E1,8.8E1,2E0,7E0,3E0,3E0,3E0,4E0,3E0,1E0],"tree_param":{"num_deleted":"0","num_feature":"34","num_nodes":"75","size_leaf_vector":"0"}},{"base_weights":[2.4198841E-2,-8.290193E-1,4.8083153E-2,-2.786795E-1,-1.8832525E0,1.4671437E0,2.4502603E-3,2.0167466E-1,-1.409895E0,-2.0901093E0,-4.2448425E-1,2.3715837E0,-5.5132836E-1,-1.05364196E-1,2.4320456E-1,7.3894244E-1,-2.5010109E-2,4.2861685E-1,3.4033856E0,-8.3860904E-1,5.861778E-1,-2.359082E-1,3.2350144E-1,2.995655E-1,-1.2971808E0,-1.5574189E-1,1.4465714E-1,7.5836945E-1,-1.5392558E-1,-2.514572E-1,-1.0693207E0,-1.080349E0,-1.6637424E-1,1.3810923E0,6.1607316E-2,3.8625434E-1,-7.202169E-1,-2.545292E0,-2.8887787E-1,-2.910614E-3,-2.5665918E-1,-3.0878067E-1,7.78923E-2,7.242076E-1,-1.2687542E0,6.282196E-1,-2.483701E-1,1.0527505E-1,2.2228642E0,-1.3312922E0,2.0936182E-1,2.3876718E-1,1.1414996E0,6.38628E-1,-1.1131471E0,1.8281047E-1,-6.6427356E-1],"categories":[],"categories_nodes":[],"categories_segments":[],"categories_sizes":[],"default_left":[true,true,true,true,true,true,true,true,false,false,false,true,true,true,true,false,true,true,false,true,false,true,true,true,true,true,false,false,true,false,false,true,true,true,true,true,true,false,true,false,false,false,false,false,false,false,false,false,false,false,false,false,false,false,false,false,false],"id":25,"left_children":[1,3,5,7,9,11,13,15,-1,-1,-1,17,19,21,23,-1,25,27,-1,29,-1,31,33,35,37,39,-1,-1,41,-1,-1,43,45,47,49,51,53,-1,55,-1,-1,-1,-1,-1,-1,-1,-1,-1,-1,-1,-1,-1,-1,-1,-1,-1,-1],"loss_changes":[1.3469314E1,9.918532E0,4.1569653E1,7.3483324E0,9.2331886E-1,3.781926E1,1.6196707E1,1.2363853E0,0E0,0E0,0E0,2.6607841E1,2.7790594E0,2.4206211E1,1.7144375E1,0E0,1.9997637E-1,1.2693017E0,0E0,5.438876E-1,0E0,1.9255692E1,2.7889574E1,1.680969E1,8.07404E0,